svm_type c_svc
kernel_type linear
nr_class 3
total_sv 5588
rho -0.11971 0.818688 0.866067
label 1 2 0
nr_sv 1909 926 2753
SV
0.8869812218177534 1 1898:1 2240:1 5110:1 5318:1 5916:1 5937:1 6090:1 8717:1 9303:1 11534:1 13449:1 15067:1 15074:1 15075:9 15076:-0.539 15077:-0.062 15078:-0.062 15079:0.035 15081:1 15086:1 15091:1 15093:4 15097:1 15107:1 15110:1 
0 0.4756038368751571 456:1 707:1 1874:1 2240:1 2632:1 3523:1 5441:1 5737:1 5862:1 5916:1 6191:1 6263:1 6906:1 8903:1 10109:1 11900:1 11960:1 13148:1 13449:1 13994:1 14341:1 14424:1 14450:1 14940:1 14982:2 15066:1 15074:2 15075:25 15076:1.869 15077:0.083 15078:0.083 15079:-1.143 15086:1 15091:6 15092:1 15097:1 15110:2 
0.07827474142863207 0.2181521653944832 217:1 2217:1 4828:1 5077:2 5207:1 5937:1 7402:1 8181:1 8434:1 8909:1 9138:1 9213:1 9305:1 10938:1 13236:4 13352:1 13487:1 13994:1 15066:2 15068:1 15075:19 15076:-1.232 15077:0.449 15078:0.449 15079:-0.502 15081:1 15091:7 15093:5 15099:1 15111:1 
0.1876072233620921 0.4523449869515751 93:1 456:1 535:1 2641:1 3797:1 5177:1 5293:1 6238:1 6601:1 8189:1 8880:2 9093:1 9303:1 12553:1 13449:1 13487:2 13841:1 14766:1 14994:1 15066:3 15070:1 15074:2 15075:18 15076:1.316 15077:0.449 15078:0.449 15079:0.084 15091:3 15092:3 15093:3 15099:1 15107:1 15111:1 
0.05193749865309601 0.05161664657454832 1:2 216:1 444:1 456:1 900:1 1200:1 4719:1 4828:1 5176:1 5583:1 6191:2 6601:1 6747:1 8125:1 8181:1 8843:1 12333:1 13303:1 13994:1 14001:1 14169:2 14368:1 14626:1 15066:2 15075:24 15076:-1.132 15077:-0.062 15078:-0.062 15079:-0.264 15091:2 15093:4 15097:2 15099:1 15107:1 15110:1 
0 0.1865342169489104 1:1 464:1 466:1 5006:1 5583:1 5737:1 7523:1 7592:1 7698:1 8125:1 8651:1 13236:1 13502:1 14948:1 15075:12 15076:-0.098 15077:-0.062 15078:-0.062 15079:-0.045 15091:2 15092:1 15093:2 15099:1 15109:1 
0 0.1219250179119613 3668:1 5287:1 5951:1 6191:1 7262:1 8125:1 8717:1 8926:1 8968:1 9325:1 13162:1 13229:1 13236:1 13413:1 13449:1 13994:1 14679:1 15066:1 15074:4 15075:13 15076:1.211 15077:-0.007 15078:-0.007 15079:0.789 15091:4 15093:3 15097:1 15111:1 
0.309726740954832 0.02327772250610963 340:1 1874:1 3255:1 3522:1 4955:1 5318:1 5335:1 5737:1 6191:1 6745:1 7692:1 9296:1 9432:1 12743:1 13487:1 14679:1 15066:1 15067:1 15075:17 15076:0.599 15077:0.782 15078:0.782 15079:-0.229 15086:3 15091:5 15092:1 15093:2 15097:3 15107:1 15110:2 
0 0.05111234362639638 1:1 2850:1 3668:1 4308:1 4828:1 4894:1 5240:1 5343:1 5375:1 6570:1 6601:2 6795:1 7508:1 8565:1 9063:1 9064:1 12262:1 13341:1 13377:1 13487:1 15069:1 15075:23 15076:3.187 15077:0.413 15078:0.413 15079:0.474 15091:3 15093:8 15097:2 15099:1 15109:1 15110:2 
0 0.3423089602935919 627:1 900:1 1874:1 2632:2 3359:1 7984:1 8167:1 9983:1 13288:1 13378:1 13449:3 13817:1 14341:1 14424:1 15067:1 15070:1 15074:1 15075:14 15076:-2.034 15077:0.334 15078:0.334 15079:-0.02 15091:5 15093:3 
0.7223008361043127 1 444:1 464:1 900:1 1898:1 5176:1 5737:1 6191:2 8125:1 9847:1 11602:1 13236:1 13378:1 13449:1 15066:2 15075:12 15076:-1.153 15077:0.449 15078:0.449 15079:0.158 15086:1 15091:3 15093:1 15097:2 15110:1 
0.4557491050797883 0.457529297502463 340:1 2652:1 3994:1 5789:1 6570:1 6895:1 8585:1 8896:1 8956:1 9772:1 11881:1 12931:1 13071:1 14679:1 15075:17 15076:0.97 15077:-0.062 15078:-0.062 15079:0.75 15081:1 15091:6 15097:1 15099:1 15107:1 15108:1 15109:1 15110:1 
0 1 1096:1 1641:1 3253:1 5768:1 8618:1 9088:1 9303:1 9631:1 10752:1 13236:1 13449:2 15075:14 15076:1.223 15077:1.169 15078:1.169 15079:0.047 15081:3 15086:1 15091:2 15092:1 15093:3 15108:1 
0 0.3899021233350726 456:1 2354:1 2792:1 4527:1 4600:1 4657:1 4809:1 8717:1 9213:1 9764:1 11836:1 12919:1 13487:1 14386:1 14610:1 14679:1 15075:14 15076:3.92 15077:-0.062 15078:-0.062 15079:0.822 15086:2 15091:1 15092:2 15093:3 15108:1 15110:2 
0.04264710711284742 0.08570027452976352 275:1 456:1 1145:1 2913:1 4211:1 5343:1 5716:1 6326:1 6689:1 6839:1 8885:1 9213:1 9759:1 11491:1 12576:1 13229:1 13236:1 13449:1 13573:1 14031:1 14610:1 15066:2 15070:1 15075:18 15076:0.305 15077:-0.062 15078:-0.062 15079:0.079 15080:1 15091:3 15093:6 15111:1 
0.1882987451213038 0.4265653948083826 1:1 771:1 2260:1 2599:1 4828:1 5737:1 5794:1 6191:2 6326:1 6700:1 8125:1 8885:1 8956:1 10667:1 12262:1 13236:1 13279:1 15066:2 15075:12 15076:0.368 15077:0.079 15078:0.079 15079:-0.075 15091:2 15093:6 15096:1 15097:2 15099:1 15110:1 
0.09414676648970326 0 1:1 456:1 1334:1 1694:1 2587:1 6097:1 6191:1 7523:1 7745:1 9213:1 9325:1 11953:1 12633:1 12823:1 13288:1 14434:1 14527:1 14578:1 14793:1 14982:1 15066:2 15067:1 15068:1 15074:1 15075:21 15076:0.187 15077:0.451 15078:0.451 15079:0.012 15086:2 15091:3 15092:1 15093:4 15096:2 15097:3 15110:2 15111:1 15115:1 
0.06384025278388285 1 1287:1 2021:2 4420:1 4828:1 5766:1 6461:1 7943:1 8083:1 9303:1 11401:2 11457:1 11567:1 13229:1 13341:1 13378:1 13449:2 14626:1 15074:1 15075:15 15076:0.985 15077:-0.165 15078:-0.165 15079:-0.127 15086:1 15091:4 15093:6 15107:1 
0 0.3850138907845536 1591:1 1858:1 2523:1 4949:1 4967:1 5176:1 5236:1 6043:1 6570:1 9303:1 11696:1 11780:1 13236:2 13261:1 13449:2 13682:1 14460:1 14679:1 14982:1 14994:1 15075:19 15076:2.493 15077:-0.041 15078:-0.041 15079:0.805 15080:1 15081:1 15086:2 15091:3 15093:8 15096:1 
0 0.03996246971087729 3255:1 4071:1 4828:1 4967:1 5318:1 5458:1 5679:1 5889:1 6097:1 6191:1 6570:1 8349:1 8890:1 9081:1 11000:1 11602:1 13765:1 14032:1 14305:1 14942:1 15066:2 15068:1 15070:1 15075:12 15076:0.668 15077:0.449 15078:0.449 15079:0.053 15081:1 15091:3 15093:11 15097:1 15099:1 15106:1 15115:1 
0.2974400093299056 0.7844135991907834 4708:1 6050:1 6623:1 6750:1 7219:1 7692:1 9303:1 11970:1 13236:1 13449:1 13487:1 15066:1 15070:1 15075:6 15076:0.461 15077:0.141 15078:0.141 15079:-0.165 15091:3 15093:3 15108:1 
0 1 1:1 686:1 1898:1 2733:1 4661:1 5242:1 5416:2 5624:1 6096:2 8619:1 9303:1 9706:1 11741:1 13236:1 13341:1 13449:1 13667:1 14368:1 14552:2 15074:1 15075:14 15076:0.509 15077:0.172 15078:0.172 15079:0.041 15086:1 15091:2 15092:3 15093:6 15108:1 15110:1 
0.08747453954561041 0.6889187603246114 749:1 1155:1 2285:1 3807:1 6570:1 8560:1 8615:1 8995:1 9303:1 9432:1 9817:1 9861:1 12823:1 13265:1 13988:1 14382:1 14982:1 15070:1 15075:14 15076:1.411 15077:0.422 15078:0.422 15079:-0.115 15081:1 15082:1 15086:1 15091:2 15093:5 15111:1 
0.01375588132400509 1 217:1 5165:1 8956:1 9334:1 10301:2 10483:1 11674:1 13236:1 13449:1 13487:1 15066:1 15075:11 15076:1.063 15077:0.422 15078:0.422 15079:-0.165 15086:2 15091:4 15092:1 15093:4 15096:2 15107:1 
0 0.3532822474490891 456:1 1219:1 5176:1 5441:1 5723:1 7200:1 8050:1 9095:1 10634:1 11129:1 11438:1 12323:1 12826:1 13236:1 13319:1 13449:1 13757:1 14982:1 14994:1 15066:3 15067:1 15070:1 15074:1 15075:15 15076:3.159 15077:0.334 15078:0.334 15079:0.422 15091:3 15092:1 15093:9 
0.5766859349161052 0 716:1 1096:1 1874:1 4670:1 5120:2 5766:1 6570:1 7939:1 8050:1 8125:1 9296:1 9305:1 11129:1 15075:13 15076:-0.948 15077:-0.062 15078:-0.062 15079:-0.062 15091:4 15093:3 
0.1509757643559522 0 1:1 456:1 619:2 2124:1 2495:1 5742:1 6022:1 6326:1 6586:1 7225:1 8527:1 8956:1 9303:1 10000:1 12633:1 13236:2 13449:1 14493:1 14670:1 14982:1 15066:2 15075:18 15076:1.518 15077:-0.062 15078:-0.062 15079:0.079 15086:1 15091:4 15092:2 15093:4 15108:1 
0.05770685624373138 0.5024746196471311 696:1 895:1 5838:1 7624:1 11696:1 13487:1 14917:1 14982:1 15075:9 15076:3.044 15077:1.169 15078:1.169 15079:0.16 15080:1 15091:5 15093:2 
0.006107820116022614 0.6860316051167689 749:1 6601:1 6652:1 6883:1 7508:1 7597:1 8320:1 8466:1 8717:1 9095:1 9213:1 9432:1 14486:1 15070:2 15075:7 15076:1.35 15077:0.449 15078:0.449 15079:0.573 15081:1 15086:1 15091:1 15093:11 15097:1 15102:1 15111:1 
0.2843863693433571 0.2476071695121815 32:1 93:1 157:1 631:1 4828:1 5197:1 5737:1 8181:1 9204:1 9303:1 9660:1 9764:1 10325:1 11432:1 13251:3 15066:3 15068:1 15074:1 15075:20 15076:2.055 15077:0.449 15078:0.449 15079:0.014 15080:2 15091:3 15092:1 15093:5 15099:1 15111:1 
0.1471829648221311 0 716:1 1046:1 1834:1 3059:1 5176:1 5791:1 5838:1 6326:2 6601:1 7523:1 7662:1 8717:1 8880:1 8953:1 9270:1 9613:1 12322:1 13236:1 13288:1 13378:1 14610:1 15075:22 15076:1.295 15077:0.58 15078:0.58 15079:-0.083 15085:1 15086:1 15091:6 15093:4 15097:2 15108:1 15110:1 15111:1 
0 0.2433987440413112 88:1 313:1 398:1 849:2 1431:1 4184:1 5415:1 9213:1 9432:1 10829:1 10908:1 13236:1 14925:1 15066:2 15070:3 15075:13 15076:1.311 15077:0.449 15078:0.449 15079:0.062 15081:4 15086:1 15092:1 15093:11 
0.06564262506416382 0.9925500742918386 494:1 619:1 2157:1 3770:1 4828:1 5737:1 5866:1 6601:1 7098:1 7908:1 9428:1 11414:1 12633:1 13378:1 13449:1 14424:1 14982:1 15066:1 15074:1 15075:15 15076:1.757 15077:-0.062 15078:-0.062 15079:0.304 15081:1 15086:1 15091:1 15093:4 15097:2 15106:1 15110:1 
0.5246630076890929 0 1:1 275:1 1233:1 2109:1 4088:1 4304:1 4308:1 4981:1 5240:1 5619:1 6097:1 6191:1 6238:1 7745:1 9213:1 9215:1 12127:1 12264:1 13236:3 13487:1 14491:1 15066:1 15075:23 15076:-0.826 15077:-0.062 15078:-0.062 15079:0.128 15082:1 15086:2 15091:2 15092:1 15093:2 15096:1 15097:1 15099:3 15107:1 
0.002299556594252339 0.06810469067414977 1294:1 1327:1 2914:1 4300:1 4847:1 5416:1 6097:1 6191:1 6906:1 8181:2 8514:1 8717:1 10947:1 13205:1 13229:1 13487:1 15066:5 15070:1 15074:1 15075:10 15076:0.073 15077:0.197 15078:0.197 15079:-0.148 15090:1 15091:2 15092:1 15093:4 15097:1 15108:1 15109:1 15115:1 
0 0.6454316944637033 1:1 385:1 1096:1 1502:1 4190:1 4479:1 5585:1 5874:1 6090:1 6652:1 9213:3 9286:1 9769:1 13236:1 14610:1 14797:1 15075:18 15076:4.892 15077:0.603 15078:0.603 15079:0.449 15082:1 15086:3 15091:5 15093:4 15097:1 15107:1 15110:1 15111:1 
0 0.4875155479510394 456:3 681:1 849:1 1350:1 1551:1 2457:1 4431:1 5415:1 5936:1 6326:1 6570:1 6716:1 8045:1 8903:1 9305:1 9314:1 10969:1 13236:2 13449:2 14626:1 14925:1 15007:1 15075:23 15076:2.879 15077:-0.076 15078:-0.076 15079:0.422 15081:1 15086:1 15091:5 15093:6 
0.126642958988978 0 619:1 793:1 1683:1 1874:1 3244:1 6570:1 7463:1 7523:1 8585:1 8995:1 10000:1 11706:1 12633:1 13236:1 13261:1 13269:1 13276:1 13496:1 14386:1 14679:1 15075:17 15076:0.37 15077:-0.062 15078:-0.062 15079:0.317 15081:1 15082:1 15086:1 15091:3 15093:2 15097:1 15108:1 15109:1 15110:1 
0.1314762977863861 0.1043694255229093 1:1 456:1 1169:1 1898:1 3802:1 4702:1 5322:1 5463:1 6570:1 9093:1 9891:1 10527:1 13236:2 13950:1 13994:1 14448:1 14679:1 14939:1 15075:14 15076:2.461 15077:0.449 15078:0.449 15079:0.02 15082:1 15091:6 15093:5 
0.05753210491152368 0.3061937931568455 456:1 1976:1 2615:1 5563:1 5903:1 6326:1 7335:1 8013:1 9382:1 9652:1 13236:1 13288:1 13741:1 14371:1 15070:1 15075:11 15076:0.633 15077:-0.062 15078:-0.062 15079:0.2 15091:2 15092:2 15093:5 
0 0.02701447745100002 749:1 849:1 1235:1 1650:1 5415:1 6456:1 9777:1 10109:1 13236:2 14726:1 15075:6 15076:1.258 15077:0.345 15078:0.345 15079:0.451 15081:1 15091:1 15093:7 15096:1 
0 0.3311887528237121 403:1 749:1 2256:1 3167:1 3519:1 4828:1 4967:1 7303:1 7523:1 7579:1 7695:1 8717:2 9189:1 12826:1 12877:1 13203:1 13214:1 13502:1 14578:1 14670:1 14982:1 15067:1 15068:1 15075:28 15076:0.118 15077:-0.3 15078:-0.3 15079:0.053 15081:4 15086:1 15091:5 15092:2 15093:3 15107:1 15108:1 15111:1 
0 0.1797669957233405 1:1 796:1 4079:1 4828:1 5375:1 5716:1 7793:1 7866:1 8903:1 11543:1 11872:1 12300:1 13010:1 14670:1 14880:1 15074:1 15075:13 15076:2.047 15077:0.442 15078:0.442 15079:0.627 15086:2 15091:6 15093:5 15096:1 
0.1102355610147095 0.0792191188909267 1:1 2656:1 4542:1 6611:1 7022:1 8463:1 8995:1 9462:1 10767:1 11543:1 12462:1 14626:1 14679:1 14890:1 15070:1 15075:13 15076:1.673 15077:0.185 15078:0.185 15079:-0.235 15082:1 15091:2 15092:1 15093:6 15111:1 
0 0.3420341175905472 3255:1 4306:1 5679:1 6570:1 13236:1 15067:1 15068:1 15074:1 15075:6 15076:1.583 15077:0.449 15078:0.449 15079:0.334 15081:1 15091:1 15093:4 15096:1 
0.08398132442582038 0.1425168374754213 917:1 1251:1 2039:1 4719:1 5766:1 6097:1 6191:1 6570:1 8399:1 9803:1 9990:1 12826:1 13122:1 13256:1 13282:1 15066:1 15075:13 15076:-1.431 15077:0.147 15078:0.147 15079:-0.596 15086:2 15091:2 15092:1 15093:3 15097:1 15099:1 15106:1 15109:1 
0.03325118446549429 1 754:1 2914:1 6191:1 7908:1 9303:1 13229:1 13449:1 13682:1 13741:1 14670:1 15066:1 15075:6 15076:-0.35 15077:0.047 15078:0.047 15079:-0.475 15086:1 15093:3 15097:1 15110:1 
0 0.1984187024234281 208:1 216:1 1737:1 1874:1 1972:1 4600:1 5019:1 5737:1 6191:1 6326:1 6570:2 8615:1 9305:1 9959:1 10764:1 12604:1 12633:1 13229:1 13236:2 13288:1 14386:1 14610:1 15066:1 15075:19 15076:1.067 15077:0.179 15078:0.179 15079:0.586 15081:1 15085:1 15088:1 15091:2 15093:3 15097:1 15107:1 15108:1 
0.2748444758993786 0.465143089899195 2230:1 3522:1 4949:1 5287:1 5931:2 6191:1 7299:1 8885:1 9213:1 9303:1 9305:1 10767:1 13276:1 13278:1 13449:1 14339:1 14382:1 14880:1 14982:1 15066:1 15074:1 15075:20 15076:0.021 15077:0.442 15078:0.442 15079:-0.484 15081:1 15091:4 15092:1 15093:2 15097:1 15110:1 
0.06405748091835263 0.09393690737361166 529:1 2913:1 3255:1 4689:1 5020:1 6689:1 9303:1 9462:1 13077:1 13288:1 13573:1 14147:1 14382:1 15066:1 15070:1 15075:11 15076:0.457 15077:-0.062 15078:-0.062 15079:0.153 15081:1 15086:1 15090:1 15091:6 15093:5 15097:1 15106:1 
0.08374327299507833 0 340:1 2928:1 3255:1 3668:1 4806:1 5679:1 7156:1 8125:1 9063:1 9064:1 9213:1 11000:1 12262:1 13236:1 13269:1 13878:1 14982:1 15069:1 15075:17 15076:2.683 15077:-0.062 15078:-0.062 15079:0.676 15086:2 15091:1 15092:1 15093:3 15097:1 15099:1 15110:2 
0.161218906812906 0.3041337131306527 2575:2 4200:1 5173:1 5318:1 6191:1 6570:1 9088:1 9244:1 9303:1 10767:1 12314:1 13449:1 14982:1 15066:1 15074:1 15075:14 15076:-3.043 15077:0.676 15078:0.676 15079:-1.049 15081:1 15085:1 15086:1 15091:5 15093:1 15097:1 15110:1 
0.05244968274989236 0 586:1 1976:1 1986:1 2240:1 2455:1 3817:1 4828:1 5916:1 6191:1 6601:1 8125:1 9093:1 10767:1 12253:1 12255:1 12262:1 12664:1 13219:1 13229:1 13449:1 13453:1 13487:1 14982:2 15066:1 15075:22 15076:-1.547 15077:-0.022 15078:-0.022 15079:0.676 15090:1 15091:1 15092:1 15093:3 15097:2 15099:1 15106:2 15107:1 15108:2 15110:1 
0 0.2533240663120501 471:1 1326:1 1576:1 4193:1 6326:1 8885:1 9303:1 9648:1 9940:1 12826:1 12841:1 13236:1 13637:1 15070:2 15075:10 15076:4.819 15077:0.461 15078:0.461 15079:2.041 15091:5 15093:3 
0.7555841972164883 1 1127:1 3413:1 4748:1 5287:1 6191:1 6906:1 8351:1 11696:1 13279:1 13487:1 14371:1 15074:1 15075:9 15076:-1.689 15077:-0.502 15078:-0.502 15079:-0.075 15091:2 15093:3 
0.339879226781535 1 1096:1 1591:1 2632:1 3330:1 5866:1 6191:1 8585:1 13236:1 13279:1 13487:1 14527:1 14610:1 14982:1 15075:14 15076:0.883 15077:-0.062 15078:-0.062 15079:0.23 15091:3 15092:1 15093:1 15107:1 
0 0.6100546609769048 44:1 456:1 1350:1 3299:1 3499:1 3854:1 5201:1 6326:2 7412:1 8560:1 9088:1 13236:2 13315:1 13449:1 13560:1 14721:1 15074:1 15075:12 15076:2.767 15077:-0.062 15078:-0.062 15079:0.573 15080:1 15082:1 15086:2 15087:1 15091:2 15093:8 15108:1 
0 0.8080921797976007 1:1 1138:1 1588:1 3237:1 4908:1 5335:1 5737:1 6191:1 8181:1 8717:2 11491:1 13279:1 13487:1 14679:1 15066:1 15075:18 15076:1.56 15077:0.119 15078:0.119 15079:0.603 15082:1 15086:3 15091:3 15093:2 15097:2 15107:1 15110:1 15111:1 
0 0.3199451864748981 1:1 456:1 1096:1 2822:1 4042:1 4828:2 4925:1 5766:1 7360:1 8125:1 8505:1 8572:1 8885:1 9213:1 9722:1 10213:1 10277:1 13229:1 13236:1 13449:1 15075:17 15076:2.272 15077:-0.062 15078:-0.062 15079:0.219 15091:4 15093:5 15110:1 
0.3477841178459772 0.1550727429514934 1588:1 2034:1 4640:1 5919:1 6191:1 6326:1 7296:1 7793:1 8717:1 8840:1 8956:1 9303:1 9432:1 10523:1 11095:1 11966:1 12262:1 13236:2 13449:2 13487:1 14117:1 14557:1 14670:1 14763:1 15066:1 15070:1 15075:24 15076:-3.59 15077:-0.062 15078:-0.062 15079:-0.078 15085:1 15086:1 15091:7 15092:1 15093:2 15097:2 15099:1 15111:1 
0 0.8312280329100482 1:1 1326:1 3255:1 4059:1 4475:1 4828:1 4897:1 4955:1 6326:1 7726:1 8545:1 8717:1 8769:1 9088:1 9213:1 11500:1 13224:1 14460:1 14679:1 14942:1 15066:1 15075:22 15076:3.242 15077:-0.062 15078:-0.062 15079:0.422 15080:1 15091:6 15092:2 15093:7 
0.2460392514461321 0.4926423522354828 2039:1 4069:1 5207:1 6043:1 6191:1 7908:1 7962:1 8911:1 9213:1 9303:1 9944:1 12826:1 12872:1 12997:1 13269:1 13449:1 14276:1 15066:1 15070:1 15075:10 15076:0.942 15077:0.047 15078:0.047 15079:0.316 15086:1 15091:1 15093:7 15097:1 15110:1 
0 0.2975174643177569 456:1 749:1 1096:2 3680:1 5318:1 6474:1 6570:1 8323:1 8527:1 8903:1 9303:1 10722:2 11058:1 11197:1 11333:1 11372:1 11870:1 11960:1 13236:2 13449:2 14458:1 14843:2 15066:2 15070:1 15074:2 15075:17 15076:0.379 15077:0.047 15078:0.047 15079:-0.122 15082:1 15086:1 15091:1 15093:9 15097:1 15107:1 15110:1 
0.006061943059471882 0.3211389145012368 1:1 4828:1 6326:2 7013:1 7320:1 7369:1 7396:1 7589:1 7733:1 8420:1 9432:1 9767:1 9790:1 11327:1 11634:1 12443:1 13236:2 14925:1 15066:1 15075:21 15076:1.578 15077:-0.05 15078:-0.05 15079:0.603 15081:1 15091:3 15093:5 15099:1 15107:2 15109:1 
0.1184763454858916 0.6892880321439051 1235:1 4069:1 5077:1 6326:1 7962:1 10536:1 10557:1 13236:1 15066:1 15068:1 15075:8 15076:1.346 15077:0.449 15078:0.449 15079:0.336 15081:1 15091:3 15093:2 
0.5290325939404116 0 917:1 5343:1 6238:1 8956:1 9314:1 10293:1 10550:1 11184:1 12262:1 12512:1 12664:1 12785:1 13341:1 14679:1 14793:1 15070:1 15075:13 15076:-0.934 15077:-0.038 15078:-0.038 15079:0.825 15085:1 15086:1 15091:1 15093:5 15099:1 15108:1 15110:1 
0.09294809780013431 0 1:2 456:1 749:1 917:1 3679:1 4828:1 5076:1 5343:1 6006:1 6191:1 6906:1 7296:1 7387:1 8565:1 9063:1 9213:1 9485:1 12092:1 12262:1 13487:1 14117:1 14458:1 14460:1 15066:1 15075:23 15076:-2.202 15077:-0.062 15078:-0.062 15079:-0.253 15086:1 15091:6 15093:3 15097:2 15099:1 15107:1 15108:2 15110:1 
0.1066902964154476 0.04518880264093516 1:2 749:1 2054:1 2091:1 5583:1 6570:1 8747:1 9213:1 9225:1 9303:1 11449:1 11722:1 11872:1 12783:1 13341:1 14679:1 14729:1 14772:1 15066:1 15074:1 15075:12 15076:1.795 15077:0.136 15078:0.136 15079:0.136 15086:2 15091:2 15093:7 15097:1 
0.05735955700158998 0.426245709929013 1:1 456:1 1735:1 1803:1 1946:1 4953:1 5318:1 5343:1 6191:1 6586:1 7141:1 7508:1 7682:1 8717:2 8956:1 13449:1 13487:1 14517:1 14604:1 14641:1 14679:1 15066:1 15070:1 15074:1 15075:16 15076:0.455 15077:-0.062 15078:-0.062 15079:-0.165 15082:1 15091:5 15093:5 15097:1 15108:1 15110:1 15111:1 
0 0.6191507866787639 1:1 3237:1 3413:1 4748:1 5737:1 6191:2 8956:1 10038:1 13487:1 14305:1 14679:1 15066:2 15068:1 15070:1 15075:12 15076:0.71 15077:0.449 15078:0.449 15079:-0.447 15081:1 15091:3 15093:2 15097:2 15099:1 15106:1 15110:1 
0.8923218268606993 0.7838428234702212 561:1 562:1 565:1 576:2 2179:2 2850:1 4237:1 4828:2 4949:1 7979:1 8885:1 13236:1 13377:1 15066:2 15074:1 15075:9 15076:3.16 15077:1.099 15078:1.099 15079:0.219 15086:2 15091:4 15093:7 15096:1 15107:1 15111:1 
0.08738208394384986 0.3478050556150535 1096:1 1747:1 2652:1 3237:1 3524:1 4564:1 5318:1 5686:1 6570:1 7523:1 7698:1 8615:1 8717:1 8885:1 9432:1 13449:1 14082:1 14617:1 15074:1 15075:13 15076:0.06 15077:0.317 15078:0.317 15079:0.65 15081:1 15086:1 15091:3 15093:8 15108:1 
0.113771701960425 0.8719315778985599 1:1 511:1 6191:1 7526:1 9088:1 9213:1 10940:2 13236:1 14178:1 15066:1 15075:8 15076:2.294 15077:0.031 15078:0.031 15079:0.609 15081:1 15086:2 15093:3 15097:1 15099:1 15107:1 
0 0.09966524745312653 1:1 456:1 868:1 1522:1 2953:1 4293:1 4949:1 5608:1 5676:1 5794:1 5842:1 6326:1 7869:1 7939:1 8663:1 8717:1 10066:1 12121:1 12232:1 12807:1 15075:22 15076:1.886 15077:-0.062 15078:-0.062 15079:-0.225 15091:8 15092:1 15093:4 15096:1 15097:1 15107:1 15110:1 
0.03802000974262824 0.2692098896723626 1:1 842:1 1326:1 1685:1 2034:1 2930:1 4949:1 6263:1 6326:1 6950:1 8181:1 9303:1 10232:1 10767:1 13229:1 13236:1 13303:1 13780:1 13792:1 14994:1 15075:23 15076:4.77 15077:0.451 15078:0.451 15079:0.274 15090:1 15091:5 15092:1 15093:3 15096:1 15097:3 15106:1 15108:1 15111:1 
0.06885300744883503 1 29:1 208:1 1096:1 3668:1 4949:1 5448:1 6601:1 7662:1 8956:1 9369:1 11543:1 11970:1 13236:1 13449:1 15074:1 15075:10 15076:-0.193 15077:0.141 15078:0.141 15079:0.58 15090:1 15091:3 15093:5 15097:1 15106:1 
0.001243240880943066 0.07394632156473414 208:1 340:1 456:1 1582:1 1636:1 5597:1 5599:1 6326:1 9764:1 11088:1 11789:1 12203:1 12385:1 13236:2 15066:1 15070:1 15075:14 15076:3.057 15077:0.232 15078:0.232 15079:0.95 15081:1 15091:6 15092:1 15093:3 15096:1 
0.02622028129736344 0.2158778924545832 1096:1 1235:1 1551:1 2509:1 4069:1 6326:1 7084:1 7962:1 8806:1 9213:2 9992:1 10557:1 10596:1 12437:1 12462:1 13236:3 13248:1 13269:1 15066:1 15070:3 15075:18 15076:0.856 15077:-0.019 15078:-0.019 15079:-0.024 15081:2 15090:1 15091:2 15092:2 15093:6 15097:1 
0 0.1315823847724266 340:1 686:2 1142:1 3522:1 5343:1 6191:1 6238:1 6996:1 9303:1 9988:1 11562:1 12597:2 12826:1 12843:1 13236:4 13269:1 13449:1 13944:1 14408:1 15066:1 15070:1 15075:18 15076:3.19 15077:0.636 15078:0.636 15079:0.079 15085:1 15091:1 15092:2 15093:4 15097:1 
0.2489367239526085 0.2950696529619781 217:1 1096:1 2293:1 2325:1 3636:1 4828:1 5176:1 6191:1 7098:1 8840:1 9781:1 10075:1 10361:1 10650:1 10752:1 13236:1 13449:1 14210:1 14610:1 15066:1 15075:16 15076:0.507 15077:-0.117 15078:-0.117 15079:-0.062 15086:2 15091:3 15093:6 15097:1 15099:1 15108:2 
0.2046066992988551 0.5398959656257053 1538:1 2354:1 3255:2 4435:1 5385:1 6191:2 6291:1 6601:1 7726:1 8885:1 9213:2 9303:1 10842:1 13229:1 13236:1 14368:2 14527:1 14925:1 15066:1 15070:1 15075:18 15076:0.001 15077:0.031 15078:0.031 15079:-0.219 15081:1 15085:1 15086:2 15091:4 15092:1 15093:3 15097:1 15109:1 15110:1 15115:1 
0.1354264593641047 0.127648197253605 1:1 1177:1 1976:1 2733:1 5176:1 6043:1 6191:2 6326:1 9377:1 9825:1 11543:1 13236:1 13251:1 13352:1 13374:1 13449:1 14982:1 15066:2 15067:1 15070:1 15074:2 15075:16 15076:-0.642 15077:-0.373 15078:-0.373 15079:0.316 15081:1 15091:1 15092:1 15093:3 15097:3 15099:1 15106:1 15110:2 
0 0.0238681617352965 798:1 2058:1 4702:1 4828:1 5186:1 6326:2 6548:2 6570:1 8505:1 8572:2 10829:1 13140:1 13236:1 14230:1 14475:1 15066:1 15074:1 15075:15 15076:3.873 15077:0.427 15078:0.427 15079:-0.231 15081:1 15086:1 15091:3 15093:9 15096:2 15107:1 
0.004937707412464084 0.1548948260601209 456:2 1898:1 1944:1 2949:1 4897:1 5737:1 6238:1 6601:1 7094:1 7148:1 7745:1 10132:1 11500:1 11679:1 12823:1 13236:1 13462:1 14493:1 15075:16 15076:1.94 15077:-0.062 15078:-0.062 15079:0.02 15085:1 15090:1 15091:2 15093:6 15097:1 15107:2 
0.1920322347791084 0.1954992302682145 456:1 1999:1 2850:1 3676:1 4032:2 4863:1 6351:1 7382:1 8560:1 8995:1 11627:1 12115:1 13236:1 13377:1 14737:1 15075:15 15076:-0.434 15077:-0.382 15078:-0.382 15079:-0.213 15082:1 15091:4 15092:2 15093:6 15096:1 15107:1 15108:1 
0.1164756170317647 0.4034698204772128 456:1 1487:1 1640:1 2234:1 4431:1 4967:1 5176:1 6191:1 6326:1 7245:1 9093:1 11142:1 13066:1 13229:1 13236:2 13487:1 14270:1 14648:1 14679:1 15066:1 15070:1 15075:15 15076:-0.25 15077:0.336 15078:0.336 15079:-0.867 15086:1 15091:3 15093:6 15096:1 15108:1 
0 0.02249440718837405 1:1 32:1 539:1 686:1 1109:1 2822:1 3731:1 4847:1 9093:1 9303:1 9484:1 11543:1 11674:1 11771:1 12569:1 12779:1 13229:1 13288:1 13449:1 14424:2 15075:23 15076:4.76 15077:-0.062 15078:-0.062 15079:0.452 15086:2 15091:5 15092:1 15093:3 15096:1 15107:1 15110:1 
0.2398450764458972 0 2652:1 3255:1 5679:1 6570:1 7745:1 8717:1 9088:1 15074:1 15075:7 15076:-3.39 15077:0.782 15078:0.782 15079:-4.999 15085:1 15086:1 15091:2 15093:4 15096:1 15108:1 
0.06074047121651036 0.143153674254999 1:1 66:1 596:1 597:1 5716:1 6200:1 6364:1 6580:1 7494:2 9081:1 9554:2 14066:1 14221:1 14679:1 15066:1 15074:1 15075:13 15076:2.871 15077:0.088 15078:0.088 15079:1.435 15081:2 15091:2 15092:1 15093:5 15107:1 15109:2 15111:1 
0.1966702736645712 0.3266893241870287 4967:1 5244:1 5608:1 6700:1 7692:1 7748:1 9145:1 10825:1 11970:1 12759:1 13236:3 13449:1 14838:1 14982:1 15070:1 15075:13 15076:1.863 15077:0.51 15078:0.51 15079:0.079 15086:1 15091:5 15093:5 15096:1 15097:1 15108:1 15110:1 
0.1377159586840741 0 1:1 944:1 1096:1 1155:1 1287:1 2523:1 3668:1 4293:1 4828:1 5248:1 5766:1 6191:1 7383:1 8125:1 8903:1 9991:1 10152:1 10767:1 12478:1 13236:1 13279:1 13449:1 14982:1 15066:1 15075:21 15076:-0.956 15077:-0.062 15078:-0.062 15079:0.676 15091:3 15093:4 15097:1 15099:1 15107:1 
0 0.8171714465336052 749:1 2230:1 4050:1 4967:1 5176:1 5737:1 6238:1 6611:1 7457:1 7597:1 8696:1 9303:2 11044:1 13042:1 13261:1 13487:1 13994:1 14408:1 14982:1 15068:1 15075:23 15076:0.015 15077:0.449 15078:0.449 15079:-0.041 15081:4 15085:1 15091:2 15092:2 15093:2 15107:1 15110:1 
0.01555672973236332 0.2177082846183504 1:1 163:1 456:1 686:1 696:1 698:1 1044:1 2323:1 2352:1 3235:2 3989:1 4949:1 4967:1 8025:1 8586:1 9213:1 9303:1 12648:1 12649:1 13236:1 13994:1 13996:1 14031:1 15066:1 15074:1 15075:20 15076:1.295 15077:0.02 15078:0.02 15079:0.3 15086:2 15091:3 15092:4 15093:6 15107:1 
0.1943941666073233 0.229200900844074 1109:1 1874:1 2454:1 5290:1 5857:1 6326:1 6570:1 8883:1 11500:1 12081:1 13195:1 13236:1 13251:1 14774:1 14982:1 15068:1 15070:1 15075:13 15076:-0.401 15077:0.449 15078:0.449 15079:0.28 15081:2 15091:4 15092:1 15093:4 15097:1 15107:1 
0 0.1321304818507464 1694:1 4828:1 5866:1 6326:1 8885:1 9303:1 9462:1 10839:1 11771:1 12560:1 12826:1 13236:1 14305:1 15070:1 15075:12 15076:1.657 15077:0.2 15078:0.2 15079:0.569 15091:2 15092:2 15093:2 15099:1 15106:1 
0 0.4104920462962827 1:1 676:1 686:1 1408:1 2931:1 4196:1 5441:1 6326:2 7158:1 8885:1 9088:1 9417:1 10467:1 11885:1 13236:2 15075:14 15076:3.836 15077:-0.062 15078:-0.062 15079:0.136 15081:1 15086:1 15091:3 15093:7 
0 0.3056157255418053 208:1 500:1 686:1 2764:1 4058:1 4702:1 5272:1 6682:1 8505:1 8572:1 9213:1 10277:1 11083:1 13236:1 15075:10 15076:1.583 15077:-0.062 15078:-0.062 15079:-0.15 15081:1 15086:1 15092:1 15093:7 15096:1 15107:1 15109:1 
0.2077118940652538 0.09180222006422611 1096:1 1308:1 3092:1 3735:1 5766:1 6045:1 7387:1 8125:1 8434:1 9303:1 9432:1 13236:2 14371:1 14408:1 15075:14 15076:-4.228 15077:-0.062 15078:-0.062 15079:0.158 15091:2 15093:3 15099:2 15111:1 
0.1729729590697675 0 686:1 2387:1 4828:1 5919:1 6191:2 6894:1 9303:1 13038:1 14082:1 14341:2 14478:1 15066:7 15067:1 15068:1 15074:1 15075:10 15076:1.248 15077:0.334 15078:0.334 15079:0.603 15086:1 15093:4 15097:2 15110:1 15111:1 
0.4647967398697863 0.6414815835356646 1591:1 1976:1 4424:1 4819:1 6326:1 6601:1 11379:1 11872:1 12262:1 13229:1 13261:1 13487:1 13878:1 14424:1 14626:1 15074:1 15075:16 15076:-0.755 15077:-0.062 15078:-0.062 15079:-0.025 15091:2 15092:1 15093:2 15096:1 15099:1 15109:1 15110:1 
0.6870790686597575 1 456:1 3255:1 5343:1 5625:1 6570:1 9369:1 13236:1 14557:1 15068:1 15070:1 15074:1 15075:8 15076:1.034 15077:0.197 15078:0.197 15079:0.297 15080:2 15086:1 15091:2 15093:4 15096:1 
0 0.160306319739633 1235:1 2159:1 2635:1 3079:1 4475:1 4828:1 5562:1 6098:1 6570:1 6873:1 8956:2 11400:1 13236:1 13256:3 13341:1 15075:14 15076:3.861 15077:0.886 15078:0.886 15079:0.2 15091:3 15093:8 
0 0.8902511694560412 749:1 2578:1 3522:1 4828:1 5737:1 5883:1 7440:1 8243:1 8434:1 8560:1 8565:1 9303:2 11955:1 12826:1 13288:1 13427:1 14610:1 14982:2 14994:1 15068:1 15075:21 15076:2.46 15077:0.449 15078:0.449 15079:1.063 15091:4 15092:1 15093:3 15097:1 15107:1 15110:1 
0.2509998251748207 0.373102038038611 716:1 917:1 3538:1 3668:1 5335:1 6601:2 7745:1 9259:1 11132:1 12351:1 13236:1 13487:1 13608:2 15074:5 15075:11 15076:-0.599 15077:-0.022 15078:-0.022 15079:0.06 15086:2 15091:5 15093:6 
0.1171238438711844 0 1105:1 4682:1 5006:1 5318:1 6191:3 6570:1 8176:1 8853:1 9215:1 9303:2 9432:2 10109:1 11304:1 11917:1 12248:1 12826:2 13449:1 13821:1 14339:1 14368:1 14670:1 15066:5 15075:16 15076:-2.549 15077:0.047 15078:0.047 15079:-1.31 15085:1 15091:4 15092:1 15093:7 15097:3 15110:2 
0 0.2073077007739685 391:1 456:1 1873:1 3255:1 3526:1 4300:1 4702:1 4828:1 4992:1 7523:1 7766:1 9303:1 10752:1 11500:1 13487:1 13780:1 13795:1 15066:1 15075:17 15076:3.712 15077:-0.062 15078:-0.062 15079:0.37 15086:1 15091:5 15093:3 15099:1 15108:1 
0.2882824132576409 0.3977552631782538 1:1 1027:1 2559:1 2618:1 3668:1 5318:1 5369:1 5737:1 6326:1 6601:1 6906:1 7519:1 7698:1 9050:1 9213:1 9369:1 9432:1 9888:1 13236:1 13449:1 13487:1 13721:1 13823:1 14982:1 15068:1 15075:23 15076:3.259 15077:0.197 15078:0.197 15079:0.959 15086:2 15091:4 15092:2 15093:3 15097:1 15110:1 
0.03039681027341769 0.02399234014696093 1:1 686:2 1096:1 1121:1 2118:1 2228:1 6191:1 6214:1 6215:1 6570:1 6745:1 6906:2 7682:1 7725:1 8125:1 8885:1 9885:1 11872:1 13502:1 14009:1 15066:1 15075:20 15076:1.091 15077:1.049 15078:1.049 15079:0.526 15086:1 15091:2 15092:3 15093:3 15097:1 15108:1 15110:1 
0.0544932871608264 0.8145987173040583 208:1 500:1 686:1 4058:1 4702:1 5272:1 6682:1 8507:1 8572:1 9213:1 10277:1 11083:1 13236:1 15074:1 15075:9 15076:1.645 15077:0.031 15078:0.031 15079:-0.15 15081:1 15086:1 15091:1 15093:7 15096:1 15107:1 15109:1 
0.1851968357175142 0.5245971822549801 1:1 464:1 514:1 598:1 1155:1 1946:1 1976:1 6191:2 6465:1 7523:1 9303:2 9314:1 9499:1 12940:1 13449:2 13721:1 14339:1 14408:1 14799:1 14800:1 14982:1 15066:3 15068:1 15075:22 15076:0.72 15077:0.449 15078:0.449 15079:0.676 15081:1 15083:1 15087:1 15091:2 15092:2 15093:5 15097:2 15099:1 15110:3 15111:1 
0.1236750259817189 0.6822709087625248 1:1 1576:1 7579:1 8831:1 8972:1 9303:1 9961:1 9992:1 10921:1 11543:1 11742:1 13236:1 14382:1 15074:1 15075:10 15076:2.689 15077:-0.048 15078:-0.048 15079:0.136 15081:1 15086:3 15091:2 15092:1 15093:4 15107:1 15109:1 
0.2170169922786026 0.09051132834480201 1251:1 1539:1 4828:1 4949:1 6238:1 6326:1 7156:1 7455:1 7523:1 7678:1 8083:1 8125:1 8181:2 8956:1 9367:1 9432:1 11543:1 12807:1 14517:1 15074:2 15075:17 15076:2.644 15077:0.816 15078:0.816 15079:-0.083 15086:1 15091:4 15093:4 15097:1 15110:1 
0.06869128169340524 0.2790806831932015 900:1 1034:1 1251:1 5287:1 5335:1 5388:1 5919:1 5931:1 6238:1 6326:1 6570:1 8989:1 10175:1 11851:1 12569:1 13179:1 13229:1 13236:1 13449:1 14527:1 14654:1 15066:2 15075:25 15076:-0.611 15077:0.317 15078:0.317 15079:0.22 15080:1 15081:3 15091:6 15093:2 15099:1 15108:1 15111:1 
0.02679761026021634 0.2409984278336252 1:1 619:1 738:1 1976:1 2018:1 2021:1 3256:1 4420:1 4967:1 5189:1 5343:1 6191:1 9213:1 10138:1 11043:1 11401:1 11706:1 13265:1 13487:1 14276:1 14517:1 14982:1 15066:1 15075:19 15076:5.554 15077:-0.062 15078:-0.062 15079:0.422 15085:1 15086:1 15091:3 15092:2 15093:4 15097:2 15109:1 15110:2 
0 0.1825179758134893 749:1 2533:1 4418:1 4667:1 6447:1 6700:1 9215:1 9853:1 11537:1 11583:1 13001:1 14566:2 14679:1 14838:1 15075:14 15076:4.085 15077:0.317 15078:0.317 15079:0.422 15081:1 15091:4 15093:10 
0.031185091542348 0.2483020765722419 948:1 1576:1 1976:1 4868:1 5375:1 5919:1 6191:1 7065:1 10940:1 11699:1 11742:1 13236:1 13282:1 13288:1 14124:1 14424:1 15066:1 15075:16 15076:0.812 15077:-0.274 15078:-0.274 15079:0.276 15086:2 15091:6 15093:2 15097:1 15099:1 15108:1 15110:1 
0 0.02355689662648312 32:1 900:1 1096:1 1235:1 3192:1 3270:1 6570:1 6601:1 6689:1 8189:1 11059:1 11567:1 12088:1 12333:1 12392:1 12565:1 13236:1 13276:1 13502:1 14322:1 14610:1 15075:18 15076:1.34 15077:0.317 15078:0.317 15079:0.787 15082:1 15091:2 15093:7 15099:1 15111:1 
0.01176914174328887 0 1:1 248:1 456:1 809:1 1538:2 2856:1 3255:1 6191:1 6570:1 6883:1 8181:1 9213:1 9271:1 9303:2 13229:1 13236:2 13256:1 13275:1 13279:1 14925:1 15066:1 15075:22 15076:1.93 15077:-0.075 15078:-0.075 15079:0.054 15081:1 15086:1 15091:3 15093:5 15097:3 15109:1 15110:1 15111:2 
0.1790784165283627 0.261106262107651 402:1 917:1 1259:1 3256:1 3675:1 4828:1 6191:1 6601:2 6652:1 7399:1 8320:1 9303:2 9314:1 10792:1 11558:1 11979:1 12427:1 13236:1 13741:1 14368:2 15066:1 15074:1 15075:21 15076:0.797 15077:-0.062 15078:-0.062 15079:0.617 15080:2 15081:2 15082:1 15091:1 15092:1 15093:7 15097:2 15107:1 15108:1 
0.1058443891882911 0.1000667456840755 456:1 1096:2 1874:1 5583:1 5710:1 5766:1 5931:1 6014:1 7508:1 7832:1 8125:1 9314:1 11228:1 11627:1 12760:1 14670:1 14982:2 15074:2 15075:18 15076:0.106 15077:0.123 15078:0.123 15079:1.021 15081:1 15088:1 15091:4 15093:4 
0.2560279222726333 0.08641907103151948 456:1 1155:1 1235:1 1796:1 3255:3 3457:1 4566:1 13236:1 13449:1 14082:1 15075:12 15076:1.068 15077:0.2 15078:0.2 15079:0.195 15081:1 15091:3 15092:1 15093:3 
0.06937750340162532 0.004342101195418354 1235:1 4144:1 9303:1 10620:1 12826:1 12891:1 13236:1 13288:1 13449:1 13780:1 14091:1 14408:1 15066:1 15070:1 15075:11 15076:1.782 15077:1.301 15078:1.301 15079:0.265 15092:1 15093:5 15110:1 
0 0.1448763495930126 1:1 849:1 1096:1 4702:1 4828:1 5092:1 5415:2 7178:1 7182:1 8125:1 10453:2 10553:1 12758:1 13236:2 13449:1 13997:1 14610:1 14626:1 15074:1 15075:15 15076:2.41 15077:-0.062 15078:-0.062 15079:0.422 15086:1 15091:2 15093:10 15108:1 
0 0.05145156724015212 456:1 1251:1 1488:1 1636:1 1874:1 3677:1 6601:1 8125:1 8717:1 11363:1 12629:1 12661:1 15068:1 15075:12 15076:-0.382 15077:0.449 15078:0.449 15079:0.02 15092:3 15093:1 15110:1 
0 0.0889282836022779 623:1 1096:1 1874:1 4030:1 4496:1 4828:1 5387:1 8073:1 8125:1 8181:1 8717:1 9303:2 9305:1 9415:1 9802:1 12262:1 12633:1 13233:1 13823:1 14308:1 14679:1 14982:1 15066:1 15075:22 15076:-0.484 15077:-0.062 15078:-0.062 15079:0.317 15081:2 15091:2 15092:1 15093:6 15097:1 15110:1 
0 0.2076222692484674 456:1 749:1 818:1 1096:1 1898:1 2089:1 4967:1 6238:1 6326:1 6367:1 7930:1 9889:1 12029:1 12938:1 13236:1 13261:1 13487:1 14994:1 15068:1 15075:20 15076:1.99 15077:0.449 15078:0.449 15079:0.805 15081:2 15085:1 15090:1 15091:2 15092:2 15093:3 15096:1 15097:1 15108:2 
0.2105647515430678 0 216:1 749:1 1179:1 2001:1 3256:1 4864:1 5919:1 6570:1 8181:1 9271:1 9314:1 11696:1 12066:1 13218:1 13449:1 13487:1 14305:1 14679:1 15067:1 15068:1 15074:1 15075:21 15076:-1.877 15077:0.334 15078:0.334 15079:-0.744 15081:1 15086:1 15091:1 15092:1 15093:3 15099:2 15106:1 15110:1 
0 0.1953002019788778 340:1 456:1 1302:1 1747:1 3994:1 4446:1 4653:1 6191:1 6326:1 8125:1 8683:1 9054:1 11491:1 13236:1 14617:1 15066:1 15075:11 15076:0.446 15077:-0.062 15078:-0.062 15079:0.2 15091:2 15093:6 15097:1 15110:1 
0 0.1796812304234358 456:1 1874:1 3413:1 4304:1 4748:1 5716:1 6191:1 6326:2 6601:1 7065:1 8434:1 8615:1 11706:1 13229:2 13241:1 13487:1 13502:1 14371:1 15066:1 15068:1 15075:17 15076:-0.684 15077:0.449 15078:0.449 15079:0.046 15080:1 15086:2 15091:2 15093:4 15097:3 15109:1 15110:3 
0 0.5091930385250966 619:1 1898:1 2652:1 5415:1 6070:1 6129:1 6746:1 7796:2 7882:1 9088:1 9140:1 9213:1 11469:1 11674:1 11943:1 12560:1 13236:2 13449:1 14646:1 14679:1 15066:1 15074:1 15075:17 15076:2.282 15077:-0.075 15078:-0.075 15079:-0.183 15081:1 15082:1 15091:3 15092:1 15093:8 15107:1 15108:1 15111:1 
1 1 1:1 533:1 1993:1 5737:1 6191:1 7402:1 7725:1 9213:1 12633:1 13487:1 14341:1 15066:1 15075:11 15076:-2.272 15077:-0.07 15078:-0.07 15079:-0.664 15086:1 15091:2 15097:1 15107:1 
0.1878526951693565 0.2399543343896082 1562:1 1686:1 1993:1 5343:1 6191:1 6238:1 6601:1 7300:1 8896:1 9303:1 12308:1 13453:1 13740:1 15066:1 15075:13 15076:1.818 15077:0.269 15078:0.269 15079:0.825 15091:5 15092:2 15093:1 15097:1 15107:1 15108:1 
0.1048674150193096 0.4483725267785025 32:1 340:1 706:1 749:1 1976:1 4635:1 4719:1 4828:1 5343:1 5619:1 6191:1 6326:1 10062:1 11696:1 11979:1 12308:1 13236:1 13288:1 13449:1 15066:1 15075:19 15076:0.402 15077:-0.062 15078:-0.062 15079:-0.165 15081:1 15082:1 15091:1 15093:2 15097:1 15107:1 15111:1 
0 1 456:1 1165:1 1293:1 1576:1 3255:1 4291:1 5625:1 6570:1 8885:1 9213:1 9648:1 12826:1 12841:1 13236:2 13284:1 14925:1 15075:11 15076:-0.026 15077:0.02 15078:0.02 15079:-0.115 15088:1 15091:2 15093:7 15096:1 15107:1 
0.2993709923703136 0 2920:1 3256:1 4564:1 4566:1 5716:1 6601:1 6745:1 7766:1 9303:1 9314:1 12262:1 12664:1 13236:1 15075:16 15076:0.011 15077:0.782 15078:0.782 15079:-0.364 15081:2 15086:1 15090:1 15092:1 15093:3 15097:1 15099:1 15106:2 15108:1 
0 1 1:1 1905:1 3130:1 4677:1 5318:1 6611:1 8615:1 12783:1 13236:1 13449:1 13487:1 14270:1 14386:1 15075:13 15076:2.402 15077:0.422 15078:0.422 15079:-0.034 15082:1 15086:2 15091:3 15093:1 
0 0.6766570567766971 1895:1 10401:1 13236:1 13449:1 13487:1 14270:1 14382:1 14679:1 15075:6 15076:1.121 15077:0.707 15078:0.707 15079:0.26 15082:1 15086:2 15091:3 15093:2 
0.06479020369540314 0.06158408100087927 1:2 456:1 749:1 1096:1 2914:1 3193:1 4294:1 4828:1 5216:1 5885:1 6191:1 6238:1 6601:1 7175:1 7908:1 8826:1 9005:2 9314:1 9773:2 11543:1 14368:1 15066:2 15075:20 15076:0.527 15077:-0.062 15078:-0.062 15079:0.02 15081:1 15085:1 15091:6 15093:6 15096:1 15097:2 
0.317318870761059 1 456:1 2364:1 3255:1 6073:1 8615:1 9213:1 10017:1 12308:1 13487:1 15070:1 15074:1 15075:7 15076:0.762 15077:-0.151 15078:-0.151 15079:0.183 15086:1 15091:5 15093:2 15096:1 
0.2090559068466899 0 1:2 456:1 749:1 1587:1 3684:1 4600:1 4653:1 5343:1 5737:2 5866:1 6191:1 8181:1 8351:1 8767:1 9071:1 9303:1 9369:2 10184:1 10523:1 11534:1 12086:1 12358:1 13229:1 13236:1 14610:1 14679:1 14763:1 15066:2 15074:1 15075:24 15076:0.373 15077:0.825 15078:0.825 15079:-0.182 15080:1 15082:1 15090:1 15091:4 15093:3 15097:1 15106:1 15108:1 15111:1 
0.541526240351176 1 1:1 1874:1 5562:1 5737:1 6326:1 6473:1 8968:1 11562:1 13449:1 13487:1 14517:1 14982:1 15074:1 15075:12 15076:1.372 15077:-0.151 15078:-0.151 15079:0.136 15091:3 15093:1 15097:1 15110:1 
0.4480213926528649 0.4853664256693848 456:1 1096:1 2216:1 3255:1 6036:1 6191:1 6272:1 6601:1 6611:1 7369:1 8083:1 8351:1 9063:1 9064:1 9303:1 9369:1 13256:1 13279:1 13741:1 14450:1 14750:1 15067:1 15069:1 15074:2 15075:22 15076:1.858 15077:0.636 15078:0.636 15079:0.02 15080:1 15081:2 15091:5 15092:1 15093:1 15099:3 
0 0.7381211124009728 208:1 1641:1 3253:1 4447:1 7415:1 9303:1 13236:2 14382:1 15075:8 15076:0.042 15077:0.449 15078:0.449 15079:0.153 15081:1 15086:1 15091:3 15093:2 15107:1 
0.41903728865805 0.868709189539145 456:1 1096:1 1874:1 3522:1 6289:1 6601:1 6906:1 11548:1 12262:1 12341:1 12392:1 13487:1 14790:1 15074:1 15075:12 15076:-2.087 15077:-0.022 15078:-0.022 15079:-0.027 15081:1 15091:5 15093:1 15099:1 
0.09124492525999078 0.3138870539356495 3255:1 5287:1 5489:1 5919:1 5942:1 5968:1 6422:2 6906:1 6998:1 8125:1 9303:1 10725:1 13810:1 15053:1 15068:1 15070:1 15075:17 15076:-0.661 15077:0.449 15078:0.449 15079:-0.643 15081:1 15091:4 15093:7 15108:1 
0.08491682864229379 0.2893404893927047 340:1 1031:1 1287:1 2230:1 2949:1 3085:1 3256:1 4854:1 4967:1 5583:1 8717:1 8956:1 9432:1 14187:1 14368:1 14679:1 15068:1 15075:18 15076:2.341 15077:0.449 15078:0.449 15079:1.456 15081:2 15086:1 15091:5 15092:2 15093:3 15096:1 15108:1 15109:1 
0.03364056503828572 0.3013404241531747 2059:1 4144:1 4967:1 6326:2 6352:1 6892:1 7219:1 9432:1 9652:1 13236:1 13449:1 14169:1 14612:2 15053:1 15075:14 15076:0.106 15077:-0.062 15078:-0.062 15079:0.049 15081:2 15086:1 15091:2 15092:1 15093:5 
0.07670776118125003 0.337224612517671 1:1 456:1 494:1 1697:1 2156:1 2764:1 6097:1 7065:1 9213:2 9303:1 11970:1 12069:1 12339:1 14230:1 14982:1 14994:1 15075:14 15076:4.748 15077:-0.062 15078:-0.062 15079:0.047 15086:2 15091:3 15092:2 15093:4 15096:2 15108:1 15115:1 
0 0.1514506998747878 275:1 749:2 4338:1 4828:1 5343:1 6653:1 7597:1 8565:1 9303:3 10616:1 13048:1 13236:1 13256:1 13487:1 13780:1 14694:1 15066:1 15070:1 15074:1 15075:16 15076:0.644 15077:-0.062 15078:-0.062 15079:0.047 15081:2 15086:2 15091:5 15092:1 15093:2 15097:1 15099:1 15110:1 
0.1194254319068872 0.4506217252062106 2159:1 4828:1 5905:1 6873:1 8717:1 8956:1 9016:1 9213:1 13236:1 13341:1 14308:1 15070:1 15075:6 15076:0.821 15077:0.19 15078:0.19 15079:0.219 15091:3 15093:3 15108:1 
0 0.1322297271404917 1:2 1816:1 3095:1 4074:1 4594:1 4803:1 5993:1 6756:1 7519:1 8995:1 9050:1 9213:2 10755:1 11469:4 13236:1 13487:1 13637:1 13669:1 14510:1 15066:1 15068:1 15075:18 15076:3.525 15077:0.449 15078:0.449 15079:0.013 15080:1 15082:2 15086:1 15091:6 15092:1 15093:9 15108:1 
0 0.1914639080628606 1:1 240:1 529:1 749:1 825:1 1096:1 3296:1 4828:2 5889:1 6191:1 6326:1 6906:1 7359:1 7378:1 8246:1 9081:1 10712:1 11449:1 12823:2 13218:1 13223:1 13449:1 14793:1 14982:1 15066:2 15074:1 15075:23 15076:2.33 15077:0.418 15078:0.418 15079:0.2 15081:1 15086:1 15091:2 15093:9 15097:1 15107:1 
0 0.1430267958816341 456:1 955:1 1743:1 2026:1 2632:1 5847:1 6143:1 9303:1 10721:1 12274:1 12826:1 12861:1 12997:1 13236:3 13288:1 14382:1 15066:1 15074:1 15075:13 15076:1.5 15077:0.449 15078:0.449 15079:0.2 15082:1 15086:1 15091:3 15093:7 
0 0.06572750194103992 456:1 749:1 2688:1 4095:1 4949:1 5234:1 5998:1 6906:1 7299:1 8514:1 8590:1 8717:1 9213:1 9432:1 9865:1 10568:1 11751:1 12920:1 13229:1 13236:4 14679:1 14726:1 14770:1 15066:1 15075:22 15076:2.926 15077:-0.062 15078:-0.062 15079:-0.148 15091:7 15093:4 15107:1 
0.5736429491389442 0.3746555839323933 217:1 391:1 456:1 466:1 922:1 1425:1 2066:1 3430:1 5077:1 5766:1 6097:1 6191:1 6570:1 7157:1 8434:1 9059:1 9990:1 11620:1 13229:1 13236:1 13487:1 14147:1 14478:1 15066:1 15075:21 15076:-2.669 15077:-0.062 15078:-0.062 15079:-1.663 15086:1 15091:3 15092:1 15093:3 15097:1 15099:1 15109:2 15110:1 15115:1 
0.007141481054822741 0.6347347041186967 775:1 2219:1 3430:1 4949:1 6326:1 6367:1 9988:1 11248:1 11960:1 13107:1 13236:1 13288:1 13512:1 14424:1 14774:1 14982:1 15066:1 15067:1 15068:1 15074:1 15075:16 15076:1.291 15077:0.334 15078:0.334 15079:0.396 15081:2 15086:1 15091:4 15092:1 15093:5 15097:1 15110:1 
0 0.8929321049678068 1096:1 1539:1 4831:1 4967:1 5287:1 7299:1 8125:1 11683:1 13236:3 13449:1 14679:1 14982:1 15066:3 15068:1 15075:13 15076:1.812 15077:0.449 15078:0.449 15079:0.449 15081:1 15091:5 15093:4 
0.3234156492262797 0.4672813941492698 217:1 3668:1 4828:2 5303:1 6132:1 8061:1 8956:1 9213:1 10422:1 11491:1 12262:1 13236:2 13378:1 13449:1 13487:1 14015:1 14031:1 15070:1 15075:16 15076:-0.499 15077:0.19 15078:0.19 15079:1.838 15085:1 15086:1 15091:5 15092:1 15093:2 
0.2094717907919494 0.4802162689715277 1:2 3371:1 6191:1 6326:1 6570:1 6906:1 8953:1 9613:1 10146:1 10941:1 11543:1 12322:1 14517:1 15066:3 15070:1 15075:11 15076:2.693 15077:0.449 15078:0.449 15079:0.032 15086:1 15091:1 15093:5 15096:1 15097:1 15107:1 15113:1 
0.05960830270260899 0.5325304195829648 444:1 3296:1 4127:1 4667:1 4897:1 6097:1 6326:2 6460:1 8395:1 9385:1 9432:1 10025:1 11347:1 11500:1 13319:1 14679:1 15066:1 15068:1 15075:12 15076:0.546 15077:0.449 15078:0.449 15079:-1.31 15082:1 15086:1 15091:2 15093:7 15099:1 15111:1 
0 0.01028507977862378 456:2 1096:1 1250:1 2632:1 3770:1 7098:1 8119:1 8181:1 9432:1 11221:1 11543:1 11696:1 13236:1 13288:1 13449:1 13774:1 14610:1 15066:1 15067:1 15070:1 15074:1 15075:15 15076:3.487 15077:0.334 15078:0.334 15079:-0.194 15081:1 15091:2 15093:9 
0.002623772905765062 0.4006014466188326 41:1 444:1 1096:1 2932:1 3256:1 4609:1 4828:2 5710:1 6794:1 9093:1 9213:1 9662:1 10840:1 11874:1 13236:2 13282:1 14368:1 14793:1 15068:1 15075:18 15076:1.945 15077:0.449 15078:0.449 15079:0.019 15086:1 15090:1 15091:3 15092:1 15093:5 15106:1 15108:1 
0.3055093815567382 0.508323733257399 32:1 340:1 1096:1 1355:1 3668:1 4754:1 5710:1 6326:1 6473:1 6794:1 7976:1 8125:1 10840:1 11378:1 13229:1 13236:1 13279:1 14517:1 14982:1 15068:1 15075:16 15076:1.846 15077:0.197 15078:0.197 15079:-0.221 15086:1 15091:1 15092:1 15093:3 15108:1 15113:1 
0.103165942044894 0.1557476771264156 5441:1 5662:1 6068:1 6520:1 7156:1 7455:1 7835:1 8181:1 9213:2 11270:1 11699:1 13841:2 14341:1 14450:1 15070:2 15075:12 15076:0.155 15077:0.017 15078:0.017 15079:0.244 15085:1 15091:4 15093:3 15097:1 15099:1 15110:1 
0.2333908133328396 0 456:2 749:1 1446:1 2492:1 3130:1 5768:1 5862:2 6326:2 7245:1 8953:1 9270:1 9613:1 10000:1 11287:1 11534:1 12262:1 12626:1 13050:1 13236:2 13288:1 14308:1 14322:1 14368:1 15075:25 15076:-0.398 15077:-0.062 15078:-0.062 15079:-0.219 15085:1 15086:2 15091:6 15093:2 15099:1 15108:3 
0 0.1637808719491287 4509:1 4967:1 5244:1 5608:1 6700:1 7748:1 8885:1 11970:1 12759:1 13236:2 13449:1 14458:1 14838:1 14979:1 14982:1 15074:1 15075:10 15076:1.866 15077:-0.165 15078:-0.165 15079:0.079 15086:2 15091:2 15093:8 15096:1 15097:1 15108:1 15110:1 
0 0.2228047065023704 1:1 749:1 1953:1 2256:1 3519:1 4144:1 7299:1 8703:1 8729:1 9213:1 9997:1 11696:2 12053:1 12551:1 13236:2 13241:1 13341:1 13449:1 14491:1 14499:1 15068:1 15075:15 15076:2.279 15077:0.449 15078:0.449 15079:-0.165 15091:1 15093:12 15096:2 15097:1 15111:1 
0 0.5453895381303477 1:1 1096:1 1370:1 1874:1 1976:1 4871:1 6280:1 7269:1 7592:1 8125:1 8428:1 11807:1 13236:1 13288:1 14982:1 15074:2 15075:14 15076:3.305 15077:0.22 15078:0.22 15079:0.158 15080:1 15082:1 15086:3 15091:3 15093:3 
0 0.09685415800125567 282:1 456:1 749:2 900:1 1096:1 4578:1 5343:1 7275:1 8774:1 9213:1 11167:1 11443:1 12354:1 12823:1 13236:1 13449:1 15075:15 15076:0.542 15077:0.06 15078:0.06 15079:0.02 15091:3 15093:3 15107:1 15108:1 
0.1777268926154867 0.6424130260010167 414:1 619:1 3158:1 3843:1 3950:1 4955:1 5173:1 5189:1 5866:1 6326:1 6906:1 7162:1 8717:1 9093:1 9215:1 9303:1 10205:1 12262:1 12826:1 13015:1 13449:2 14982:1 15070:1 15075:20 15076:0.723 15077:0.449 15078:0.449 15079:-0.253 15091:1 15092:2 15093:7 15097:1 15108:1 15111:1 
0 0.002673171482795708 4050:1 5949:1 6191:1 6231:2 6601:2 7523:2 7622:1 7662:1 8187:1 9262:1 9369:1 10399:1 11562:1 13449:1 14861:1 14982:1 15066:4 15074:2 15075:19 15076:4.224 15077:-0.062 15078:-0.062 15079:0.58 15086:3 15091:5 15093:5 15097:1 
0.1796284865528742 0 1:2 456:1 1096:1 1898:1 3167:1 3560:1 5077:1 5441:1 6326:1 6906:1 7299:1 8717:1 8956:1 9617:1 11366:1 11683:1 11955:1 13378:1 13449:1 13487:1 13501:1 14517:1 14648:1 14679:2 15074:2 15075:24 15076:-0.825 15077:-0.151 15078:-0.151 15079:0.317 15080:1 15081:1 15091:6 15093:2 15107:2 15108:1 15113:1 
1 0.5819377712253425 561:1 562:1 565:1 576:2 2179:2 2688:1 2850:1 4828:2 4949:1 7979:1 8885:1 13236:1 13377:1 15066:2 15074:1 15075:9 15076:2.464 15077:0.132 15078:0.132 15079:0.219 15086:2 15091:4 15093:7 15107:1 15111:1 
0.1271140790804925 0.680212134552958 1096:1 2295:1 2762:1 5318:1 5406:1 12843:1 13094:1 13236:1 13261:1 13449:2 15075:12 15076:-0.024 15077:-0.062 15078:-0.062 15079:-0.165 15086:1 15090:1 15091:2 15092:1 15093:1 15096:1 15097:1 15108:1 15110:1 
0 0.1981440990415258 749:1 900:1 1874:1 5414:1 5987:1 6191:1 6687:1 7008:1 8956:1 10086:1 11449:1 11558:1 12997:1 13015:1 13219:1 13261:1 14447:1 14942:1 14982:1 15066:2 15067:1 15068:1 15074:1 15075:15 15076:1.758 15077:0.449 15078:0.449 15079:1.979 15091:2 15092:2 15093:7 15096:1 15097:1 15099:1 15110:2 
0.1261686830720045 0.2939635898292059 749:1 852:1 1287:1 3046:1 3590:1 4702:1 4828:1 5077:2 7140:2 8632:2 9805:1 11508:1 13236:1 13279:1 13487:1 14276:1 14610:1 14626:1 15066:2 15074:2 15075:18 15076:0.677 15077:-0.914 15078:-0.914 15079:0.045 15091:5 15093:8 15107:1 15111:1 
0 0.3957281140653697 627:1 749:1 1127:1 1287:1 3255:1 5351:1 6191:1 6570:1 7931:1 11602:1 12584:1 13148:1 13236:2 13378:1 13449:2 13487:2 14517:1 14982:1 15066:1 15068:1 15075:22 15076:2.301 15077:0.449 15078:0.449 15079:0.449 15081:3 15085:1 15090:1 15091:3 15093:6 15097:3 15106:1 15110:2 
0.7856478187004814 0.7846849653131704 2964:1 3255:2 6570:1 7113:1 8790:1 8995:1 13453:1 13487:1 14763:1 15067:1 15068:1 15074:1 15075:8 15076:-1.731 15077:0.334 15078:0.334 15079:-0.115 15082:1 15091:4 15093:3 15097:1 15111:1 
0.2032132801739024 0.4509767042219472 394:1 1096:1 4839:1 5931:1 5939:1 6191:1 6238:1 7905:1 9164:1 9213:2 9305:1 10076:1 10588:1 11047:1 12781:1 12872:1 13021:1 13140:1 14654:1 14679:1 14793:1 15066:1 15075:19 15076:2.139 15077:-0.062 15078:-0.062 15079:0.814 15085:1 15086:4 15091:3 15092:1 15093:2 15097:1 15110:1 15111:2 
0 0.1432316971420066 340:1 456:1 514:1 854:1 1096:1 1654:1 2652:1 2887:1 3786:1 5059:1 5563:1 6500:1 6570:1 6861:1 9213:1 10523:1 11031:1 11488:1 12205:1 13236:2 13288:1 13341:1 14610:1 14982:1 15070:1 15075:20 15076:3.489 15077:0.449 15078:0.449 15079:0.263 15082:2 15091:4 15092:1 15093:7 15108:1 
0.01718273758161407 0.1851923620794508 1:1 23:1 2234:1 4967:1 5176:1 5883:1 6043:1 8683:1 9303:1 10431:1 11426:1 11534:1 13288:1 13501:1 14982:1 15067:1 15068:1 15074:1 15075:8 15076:1.407 15077:0.334 15078:0.334 15079:0.053 15091:2 15093:8 
0.003615195082334181 0.1092693631770172 2335:1 4489:1 4828:1 5114:1 6601:1 6996:1 8840:1 9314:1 11184:1 11674:1 13107:1 13236:1 13288:1 13378:1 13449:1 13994:1 14982:1 15075:17 15076:0.005 15077:0.676 15078:0.676 15079:-0.165 15086:2 15091:2 15092:2 15093:2 
0 0.2470267854626328 749:1 1685:1 1993:1 3563:1 5375:1 5383:1 5766:1 7662:1 7862:1 8181:1 10940:1 13449:1 13453:1 13487:1 15068:1 15075:14 15076:0.06 15077:0.449 15078:0.449 15079:0.276 15091:6 15093:1 15107:1 15108:1 
0 0.3529566378752536 749:1 1251:1 1576:1 4949:1 8956:1 11742:1 12807:1 13236:1 13994:1 15075:4 15076:0.025 15077:-0.062 15078:-0.062 15079:-0.182 15091:2 15093:6 
0.1237582656865854 0.7470872104169327 340:1 664:1 1254:1 8505:1 8527:1 8572:1 9213:1 9303:1 9609:1 10277:1 11083:1 12553:1 12967:1 13236:2 13301:1 15074:1 15075:11 15076:0.8 15077:-0.104 15078:-0.104 15079:0.047 15086:1 15091:2 15093:5 15096:1 15107:1 15109:1 
0 0.05085873640277768 658:1 1591:1 2094:1 2652:1 2844:1 3515:1 6326:2 7018:1 7208:1 8934:1 9432:1 10603:1 11319:1 13236:2 13512:1 14368:1 14654:1 14679:1 15075:17 15076:1.545 15077:-0.062 15078:-0.062 15079:0.814 15081:4 15091:1 15092:1 15093:7 15106:1 15108:1 15111:1 
0.06612306294177388 0 216:1 1891:1 3760:1 4625:1 5716:1 5915:1 6601:1 8394:1 8880:1 9005:1 13236:2 13449:1 13487:1 14305:1 15066:2 15075:11 15076:0.107 15077:-0.151 15078:-0.151 15079:0.151 15086:2 15091:2 15093:6 15096:1 15099:1 15106:1 15111:1 
0.08104106726659763 0.7223955561946476 340:1 1096:1 1976:1 1993:1 2470:1 3255:1 4828:1 5335:1 5625:1 6570:1 6601:1 7156:1 9093:1 9303:1 11553:1 13229:1 13487:1 14982:1 15074:1 15075:17 15076:2.086 15077:0.183 15078:0.183 15079:0.814 15086:1 15091:8 15093:2 15096:1 15099:1 
0 0.5654105924764339 4949:1 5077:1 5165:1 5318:1 6325:1 6599:1 9303:1 13236:1 13449:1 15070:2 15075:5 15076:0.455 15077:0.449 15078:0.449 15079:-0.165 15091:3 15093:2 15108:1 
0 0.2110124174678102 456:1 2641:1 3756:1 5403:1 7156:1 8741:4 9213:1 9305:1 11303:1 12323:1 12339:1 12823:1 13236:1 14424:1 14994:1 15066:4 15067:1 15074:1 15075:13 15076:2.381 15077:-0.457 15078:-0.457 15079:0.02 15091:1 15092:1 15093:9 15111:1 
0 0.798103596128704 456:2 749:1 2523:1 2632:1 2635:1 5737:1 7322:1 8119:1 8181:1 9204:1 9432:1 12308:1 12392:1 13288:1 14450:1 14679:1 15075:13 15076:1.723 15077:0.029 15078:0.029 15079:-0.078 15081:1 15092:1 15093:9 15096:1 
0 0.1984933358887728 1737:1 2001:1 2733:1 4828:1 4864:1 6830:1 8527:1 8717:1 9303:1 12082:1 13236:1 13356:1 14726:1 15074:1 15075:7 15076:0.411 15077:0.047 15078:0.047 15079:0.486 15091:1 15092:1 15093:6 15107:1 
0.02598844251735325 0.2575350041458482 1:1 314:1 4566:1 5416:1 6570:1 6601:1 6611:1 8926:1 9213:1 10920:1 11725:1 13229:1 13236:2 13378:1 13449:1 13502:1 14458:2 15075:21 15076:1.577 15077:-0.062 15078:-0.062 15079:0.376 15081:1 15091:5 15092:1 15093:3 15110:1 
0.1640114056201502 0 834:1 1426:1 3102:1 4600:1 4967:1 5020:2 7280:1 8527:1 11917:1 13236:2 13288:1 14161:1 14610:2 15075:12 15076:0.177 15077:-0.866 15078:-0.866 15079:0.053 15082:2 15085:1 15086:1 15091:4 15092:1 15093:5 
0.04067633443901114 0.9197374015731888 381:1 3017:1 4828:1 6191:1 6601:1 13236:2 13378:1 13384:1 14270:1 14386:1 15066:2 15068:1 15075:13 15076:2.374 15077:0.449 15078:0.449 15079:0.603 15081:1 15082:1 15086:1 15091:1 15092:1 15093:2 15097:1 15107:1 15108:1 15110:1 
0.02263076712630124 0.3301454308475967 340:1 456:1 3711:1 6326:1 6831:1 8956:1 9303:1 11304:1 11534:1 11970:1 13189:1 13236:1 13496:1 13504:1 14478:1 15066:1 15070:1 15075:12 15076:1.557 15077:-0.062 15078:-0.062 15079:0.2 15091:3 15093:11 15107:1 
0 0.2792586424853994 868:1 5243:1 6191:1 6326:1 6493:1 6779:1 7091:1 7597:1 7745:1 9303:2 9631:1 11299:1 11981:1 13236:1 13378:2 13780:1 13994:1 14927:1 15066:2 15075:21 15076:4.658 15077:-0.007 15078:-0.007 15079:1.083 15081:2 15086:2 15091:6 15093:4 15097:1 15110:1 
0.6811453687898618 0.9178413865182702 1:1 456:1 1985:1 2297:1 4949:1 7523:1 8956:1 9071:1 9303:1 9977:1 12008:1 13236:1 13449:1 14270:1 14386:1 15075:12 15076:-3.404 15077:-1.64 15078:-1.64 15079:-0.045 15091:3 15092:2 15093:2 15107:1 15108:1 
0.3539386413195535 0.5922887400245216 456:1 1293:1 2485:1 4186:1 6326:1 6570:2 6601:1 8050:1 8696:1 8757:1 8995:1 9063:1 9064:1 9303:1 11970:1 13236:2 13487:1 14557:1 15069:1 15075:21 15076:2.694 15077:0.573 15078:0.573 15079:0.2 15080:2 15082:1 15086:1 15088:1 15091:3 15093:4 15097:1 15099:1 15111:1 15113:1 
0.2120746444942053 0.7086676561962741 162:1 749:1 1118:1 4424:1 4764:1 4949:1 6326:1 7022:1 8463:1 9303:1 11735:1 13236:1 13370:1 13449:1 15075:13 15076:-0.179 15077:-0.003 15078:-0.003 15079:0.727 15081:2 15086:1 15091:1 15092:2 15093:4 15099:1 15111:1 
0 0.2158360932701999 533:1 3522:1 4043:1 5343:1 6493:1 8505:1 8572:1 9154:1 9303:1 10277:1 10745:2 11543:1 13236:1 14679:1 15066:1 15075:10 15076:2.435 15077:0.422 15078:0.422 15079:-0.198 15086:1 15091:3 15093:7 15107:1 
0.2850931897941735 0.09803745653862139 619:1 854:1 1302:1 3119:1 4949:1 5866:1 6570:1 6906:1 8683:1 10773:1 14578:1 15075:9 15076:-0.561 15077:1.313 15078:1.313 15079:-0.652 15081:1 15091:1 15092:1 15093:3 15097:1 15099:1 15111:2 
0.05661719385060731 0 1138:1 2102:1 2975:1 3242:1 3244:1 5176:1 5375:1 5441:1 7463:1 11970:1 12343:1 13223:1 13449:2 13487:1 13496:1 14982:1 15075:16 15076:0.758 15077:-0.062 15078:-0.062 15079:0.2 15090:1 15091:2 15092:1 15093:6 15097:2 15106:1 15107:1 15109:1 15110:1 
0 0.5757337488502308 3255:1 4922:1 6570:1 6728:1 6906:1 7113:1 9071:1 13148:1 13229:1 13487:1 14339:1 14982:1 15066:1 15075:9 15076:0.471 15077:-0.007 15078:-0.007 15079:0.2 15086:2 15091:5 15093:4 15099:1 
0.06256125637331904 0 216:1 456:1 1145:1 4030:1 4300:1 5085:1 6570:1 8073:1 9213:1 12062:1 13125:1 13236:1 13256:1 13284:1 13288:1 13910:1 14305:1 14437:1 15068:1 15075:20 15076:-0.505 15077:0.449 15078:0.449 15079:-0.452 15081:2 15086:3 15091:1 15092:1 15093:2 15097:1 15099:4 15106:1 15109:1 15110:1 
0.08562377350142719 0.05552685152553845 701:1 1240:1 2836:1 4828:1 5085:1 5441:1 9303:1 11980:1 12406:1 12826:1 12841:1 13236:1 13780:1 14493:1 15066:1 15070:1 15075:12 15076:1.931 15077:-0.062 15078:-0.062 15079:0.276 15081:1 15085:1 15091:1 15092:1 15093:4 15110:1 15111:1 
0.2537903188287498 0.3898482249542738 580:1 619:1 686:1 3255:1 3866:1 4949:1 6443:1 7455:1 9088:1 9213:1 10250:1 11742:1 12029:1 13288:2 14178:1 14942:1 14982:1 15066:8 15067:1 15074:2 15075:8 15076:2.95 15077:0.172 15078:0.172 15079:-0.268 15081:1 15082:1 15086:2 15091:2 15092:1 15093:7 15110:1 15111:1 
0.2155261998612754 0 456:1 3017:1 3793:1 4210:3 4304:1 4661:1 4828:1 4967:1 5899:1 6191:1 7299:1 9213:1 11836:1 12559:1 13236:1 13487:1 14382:1 15067:1 15068:1 15074:1 15075:21 15076:-0.893 15077:0.449 15078:0.449 15079:-1.233 15081:2 15086:2 15091:4 15093:2 15107:1 15108:1 15109:1 
0 0.5874530054251222 340:1 2635:1 3255:1 4605:1 4625:1 5063:1 5423:1 8956:1 9005:1 12205:1 13229:1 13487:1 13496:1 14763:1 15075:14 15076:1.018 15077:0.19 15078:0.19 15079:-0.075 15081:2 15089:1 15091:8 15093:5 
0 1 1350:1 4828:1 5595:1 6326:1 13236:2 13378:1 14386:1 14721:1 15075:7 15076:2.713 15077:0.985 15078:0.985 15079:0.603 15082:1 15086:1 15091:2 15093:3 15108:1 
0.1137738293043333 0.1957477007144139 1:1 1235:1 1588:1 2507:1 5071:1 5583:1 6191:2 6326:1 7767:1 8516:1 9005:1 9093:1 9303:1 11696:1 12203:1 13236:2 13256:1 13303:1 13741:1 13994:1 14578:1 14679:1 14774:1 15066:2 15074:2 15075:27 15076:3.287 15077:0.317 15078:0.317 15079:0.136 15081:1 15086:1 15091:4 15093:5 15096:1 15097:2 15108:1 15110:1 
0 0.03025684850273373 849:1 1235:1 4436:1 6191:1 6326:1 6601:2 6624:1 8453:1 8840:1 9108:1 9303:1 10377:1 11034:1 13236:2 13378:1 14262:1 14382:1 14383:1 15066:2 15075:22 15076:2.261 15077:0.047 15078:0.047 15079:0.256 15080:1 15081:4 15086:2 15091:6 15092:1 15093:3 15097:1 15107:1 
0.1154681506574036 0.1198178938465783 1:1 456:1 955:1 1096:1 1109:1 1743:1 1874:1 3113:1 6191:2 6611:1 6906:1 7592:1 7662:1 8125:1 8129:1 8181:1 9213:1 9365:1 10721:1 13236:3 13255:1 13279:1 13502:1 14157:1 15066:2 15075:22 15076:-4.604 15077:0.58 15078:0.58 15079:0.158 15086:1 15091:3 15092:1 15093:3 15097:2 15107:1 15110:1 15111:1 
0 0.5048243319377215 4828:1 5605:1 5788:1 6906:1 8129:1 8181:2 8885:1 9265:1 10015:1 12071:1 13119:1 14341:1 14424:1 15068:1 15075:13 15076:3.689 15077:0.449 15078:0.449 15079:0.591 15081:1 15087:1 15090:1 15091:5 15093:4 15096:1 15097:2 15099:1 15106:1 
0.1537910719085291 0.2453882944238874 1:1 2913:1 4967:1 5737:1 6191:2 6570:1 6689:1 7378:1 8469:1 8875:1 8885:1 9303:2 9759:1 10003:1 10177:1 13236:1 13261:1 13276:1 13374:1 13573:1 14305:1 15066:3 15067:1 15068:1 15070:2 15074:1 15075:20 15076:0.176 15077:0.334 15078:0.334 15079:-0.041 15091:2 15092:1 15093:5 15097:2 15099:2 15106:1 15107:1 
0 0.416294188392189 1:1 749:1 2551:1 3255:1 4296:1 4486:1 4967:1 5375:1 5968:1 6326:1 8956:1 10407:1 10596:1 12029:1 13236:4 13449:1 13841:2 14069:1 14197:1 14450:1 14802:1 15066:2 15067:1 15068:1 15070:1 15074:1 15075:20 15076:3.806 15077:0.449 15078:0.449 15079:0.115 15081:1 15091:3 15092:2 15093:9 15110:1 
0.07849909710218143 0.1251927959574159 456:2 854:1 3756:1 5403:1 6601:1 11303:1 11534:1 12262:1 12339:1 13089:1 13449:1 13841:1 14368:1 14679:1 15075:14 15076:0.287 15077:0.449 15078:0.449 15079:-1.103 15086:1 15091:3 15093:3 15107:1 
0.2822873084867291 0.4435075045046243 3255:1 4566:1 5531:1 5679:1 6191:1 6570:1 6601:1 7804:1 13302:1 14082:1 14438:1 15066:1 15074:1 15075:8 15076:0.167 15077:-0.34 15078:-0.34 15079:0.603 15091:2 15093:4 15097:1 15110:1 
0 0.5339102859552461 5318:1 5343:1 6097:1 6326:1 6601:1 7013:1 7267:1 9303:1 11353:1 12826:1 13449:1 14368:1 15074:1 15075:10 15076:0.253 15077:-0.219 15078:-0.219 15079:0.047 15091:2 15093:3 15097:1 15110:1 
0.136977420582566 0.518319642678877 674:1 1109:1 2788:1 5737:1 6191:1 6238:1 7369:1 7946:1 9314:1 10168:1 10240:1 11674:1 13236:1 13269:1 13288:1 13449:2 13487:1 13952:1 14610:1 14626:1 15066:1 15075:16 15076:0.716 15077:-0.062 15078:-0.062 15079:0.293 15091:4 15093:5 15097:1 15107:1 15110:1 
0 0.4874848498616653 1028:1 1947:1 2763:1 4828:1 5207:1 6776:1 6906:1 7476:1 8083:1 8885:1 9081:1 9303:1 9500:1 10905:1 11814:1 13248:1 13449:1 14174:1 14979:1 15070:2 15075:15 15076:2.952 15077:-1.397 15078:-1.397 15079:0.487 15081:1 15086:2 15091:3 15093:7 15108:1 15109:1 
0 0.5180956923737702 1096:1 5343:1 5766:1 7296:1 8125:1 9215:1 10062:1 12633:1 13449:1 13994:1 14117:1 15074:1 15075:10 15076:-0.445 15077:0.449 15078:0.449 15079:0.12 15093:3 15097:1 15111:1 
0 0.2706225053950341 1976:1 5925:2 6040:1 6326:1 8211:1 8879:1 10253:1 12262:1 13487:1 14424:1 14982:1 15075:14 15076:2.343 15077:-0.062 15078:-0.062 15079:-0.045 15091:8 15110:1 
0 0.1325242684246902 456:2 749:1 1096:1 2225:1 2632:1 4967:1 7098:1 9303:1 9432:1 10038:1 10793:1 11696:1 12037:1 12861:1 13236:1 13449:1 13487:1 14341:1 14982:1 15067:1 15070:2 15074:2 15075:19 15076:-1.156 15077:-0.062 15078:-0.062 15079:-0.078 15081:3 15091:4 15093:6 
0.1572879845511154 0.3432287257603242 456:3 749:1 3674:1 5176:1 5583:1 6078:1 9303:1 9432:1 9495:1 9654:1 9968:1 10201:1 11443:1 11628:1 12354:1 13236:2 13449:1 13487:1 15075:21 15076:-2.834 15077:0.165 15078:0.165 15079:0.02 15091:3 15092:1 15093:3 15107:2 15110:1 
0.2854332899063841 0.5397503367305055 1096:1 1874:1 4412:1 4828:1 5318:1 6357:1 6601:1 6996:1 8125:1 9063:1 9064:1 9213:1 9334:1 9432:1 12392:1 13288:1 13449:1 14774:1 15007:1 15069:1 15075:17 15076:-0.716 15077:0.551 15078:0.551 15079:-0.076 15086:1 15091:5 15093:3 15097:2 15099:1 15111:2 
0.06840773509029612 0.2012555794709344 1235:1 1350:1 2075:1 3543:1 4315:1 4803:1 4828:1 4949:1 9286:1 10307:1 12176:1 13236:1 13926:1 15066:5 15074:1 15075:2 15076:0.298 15077:0.079 15078:0.079 15079:0.219 15081:1 15086:1 15091:1 15093:11 
0 0.2023130883118081 676:1 686:1 794:1 1502:1 1898:2 6191:1 6776:1 7745:1 8604:1 9213:1 10745:1 12823:1 13236:2 13840:1 14347:1 14549:1 14793:1 15066:1 15067:1 15070:1 15074:1 15075:13 15076:3.498 15077:0.334 15078:0.334 15079:0.012 15082:1 15091:3 15093:8 15096:1 15097:1 15107:1 15110:1 
0.03557691414720452 0.07011606623309789 340:2 1067:1 3089:1 3255:1 4955:1 6326:1 7211:1 8125:1 8717:1 9283:1 9303:1 11000:1 12528:1 12725:1 13288:1 13449:1 13764:1 14982:1 15068:1 15070:1 15075:13 15076:1.296 15077:0.449 15078:0.449 15079:0.013 15081:1 15086:1 15091:3 15092:1 15093:5 15104:1 
0 1 749:1 3711:1 4967:1 5077:1 5238:1 9030:1 10596:1 12843:1 13236:1 13487:1 15075:10 15076:1.447 15077:0.449 15078:0.449 15079:0.053 15081:1 15091:3 15093:3 
0.1030736379591066 0 42:1 848:1 1096:2 1235:1 4828:1 4844:1 4955:1 5716:1 9071:1 9108:1 13229:1 13236:2 13269:2 13449:1 14527:1 14610:2 14726:1 14925:1 15066:1 15074:1 15075:24 15076:1.684 15077:-0.024 15078:-0.024 15079:0.512 15081:1 15091:2 15092:1 15093:1 15099:2 15107:1 
0.1344066283424617 0.1080255935382902 1:1 1169:1 1235:1 3834:1 4524:1 5931:1 5941:1 7908:1 8995:1 9063:1 9213:1 9303:1 9305:1 9428:1 9432:1 9450:1 10370:1 11386:1 11960:1 15069:1 15075:19 15076:0.472 15077:-0.753 15078:-0.753 15079:0.327 15081:1 15082:1 15091:3 15092:3 15093:1 15099:1 15110:1 15111:1 
0.09211508455877715 0.331725890381192 619:1 749:1 4200:1 4252:1 5867:1 6570:1 6641:1 6906:1 7126:1 8290:1 8717:1 8934:1 9889:1 12262:1 13236:1 13251:1 13269:1 13301:1 13487:1 13505:1 13766:1 14285:1 14557:2 15066:5 15068:1 15075:20 15076:1.164 15077:0.449 15078:0.449 15079:0.449 15086:2 15091:2 15093:4 15097:2 15099:1 15110:2 15111:1 
0.02105671166000705 0.1313884881029325 1:1 456:1 3684:2 4496:1 5441:1 5690:2 7547:1 7725:1 10463:1 12262:1 12733:1 13236:1 13462:1 13985:1 13994:1 14147:1 14478:1 14493:1 15074:1 15075:22 15076:1.471 15077:-0.062 15078:-0.062 15079:0.128 15081:1 15086:1 15091:2 15092:1 15093:5 15107:1 15108:2 
0.1470210209836271 0 840:1 1326:1 1460:1 1588:2 2456:1 3225:1 4252:1 6191:2 7745:1 8436:1 9213:1 9631:1 11106:1 11872:1 12106:1 12322:1 13229:1 13236:2 14531:1 14679:1 15066:2 15070:1 15075:21 15076:3.974 15077:-0.062 15078:-0.062 15079:-1.175 15086:2 15091:3 15093:6 15096:1 15097:2 15099:1 15107:1 15110:1 15111:1 
0.07438935778974218 0.1280425801767125 53:1 658:1 1061:1 2600:1 2878:1 5077:1 6039:1 6570:1 9338:1 9579:1 10709:1 11142:1 12626:1 13107:1 13236:1 13449:2 15066:1 15067:1 15068:1 15074:2 15075:17 15076:-0.16 15077:0.334 15078:0.334 15079:-0.165 15080:1 15081:1 15091:6 15092:2 15093:3 15096:1 15108:1 
0.2720124086464376 0 32:2 619:1 1939:1 4333:1 5827:1 5862:1 6102:1 6435:1 6570:1 6601:1 6682:1 9213:1 11083:1 13017:1 13229:1 13236:1 14147:1 14424:2 14951:1 15075:20 15076:-1.869 15077:-0.062 15078:-0.062 15079:-0.615 15091:4 15093:2 15097:1 15099:2 15109:2 
0.1451963135142696 0 456:1 1096:1 1251:1 3148:1 3573:1 6191:1 6238:1 6326:1 8125:1 8560:1 8651:1 10071:1 10269:1 11562:1 12624:1 12997:1 13303:1 13378:1 13449:1 14188:1 14774:1 14982:1 14994:1 15066:1 15075:26 15076:4.228 15077:-0.062 15078:-0.062 15079:0.02 15091:3 15093:1 15097:1 15099:2 15106:1 15108:1 15111:1 
0.1416606723011686 0.9316072896040732 1:1 432:1 749:1 1198:1 2365:1 5595:1 7523:1 8655:1 9783:1 13269:1 14341:1 15070:1 15075:8 15076:0.681 15077:-0.182 15078:-0.182 15079:-0.291 15086:1 15091:3 15093:4 15099:1 
0 0.3214348737045963 456:1 749:1 4077:1 5318:1 5403:1 6570:1 6912:1 9303:2 10767:1 11299:1 11970:1 12339:1 13089:1 13236:1 13378:1 13487:1 14679:1 15075:16 15076:2.034 15077:0.047 15078:0.047 15079:-0.115 15081:1 15086:1 15091:6 15093:3 15107:1 
0 0.5626770831086744 5563:1 6326:1 7022:1 9303:1 11223:1 11543:1 11696:1 13496:1 14982:2 15066:1 15067:1 15068:1 15074:1 15075:6 15076:1.828 15077:0.449 15078:0.449 15079:0.405 15091:3 15093:4 15097:1 15111:1 
0 0.0071381134241764 456:2 3098:1 3255:1 3677:1 4304:1 5287:1 5343:1 5595:1 6045:1 6601:1 9415:1 11543:1 11995:1 13994:1 14920:1 15068:1 15075:15 15076:1.943 15077:0.449 15078:0.449 15079:0.985 15091:4 15093:3 15099:1 
0 0.393687652038893 340:1 1096:1 2995:1 5443:1 8125:1 8618:1 9067:1 9213:2 9305:1 13236:2 13378:1 15075:12 15076:3.258 15077:0.782 15078:0.782 15079:0.158 15082:1 15086:1 15091:1 15093:1 15109:1 15111:1 
0 0.09507037305621052 494:1 749:1 1587:1 4563:1 6343:1 6570:1 7149:1 7976:1 8397:1 9213:2 10920:1 10950:1 12670:1 12826:1 12841:1 13236:3 13487:1 15068:1 15075:17 15076:3.464 15077:0.449 15078:0.449 15079:-0.115 15081:2 15091:3 15092:1 15093:6 15108:2 
0 0.3368266965107811 749:3 1874:1 1883:1 2632:1 3856:1 4433:1 4828:1 4967:1 5842:1 6238:1 6601:1 9317:1 10000:1 10895:1 13236:1 13487:1 14982:2 15068:1 15075:22 15076:0.2 15077:0.449 15078:0.449 15079:0.053 15081:2 15082:1 15093:7 15097:1 15099:1 15106:1 15108:1 15110:1 
0 0.04499737394034479 619:1 1235:1 1249:1 2549:1 3668:1 4828:1 5773:1 5866:1 6326:1 7044:1 7695:1 10701:1 12316:1 13236:1 13288:1 13341:1 13449:1 14460:1 14610:1 14691:1 15066:1 15074:1 15075:15 15076:2.856 15077:0.293 15078:0.293 15079:0.219 15086:1 15091:2 15092:1 15093:6 15108:1 
0.2337603769394694 0.1476338254825656 1096:1 2551:1 3440:1 3668:1 4293:1 4828:2 5766:1 6799:1 7071:1 8678:1 8885:1 9502:1 9754:1 11292:1 12316:1 12569:1 13229:1 13236:1 13269:1 13294:1 13487:1 15066:8 15074:1 15075:14 15076:1.887 15077:-0.007 15078:-0.007 15079:-0.024 15080:1 15090:1 15091:2 15092:1 15093:8 15097:2 15099:1 15106:2 15107:1 15108:1 15110:1 
0 0.4731844734822688 444:1 456:1 457:1 686:1 854:1 1326:1 1551:1 2860:1 3255:1 5531:1 5737:1 6191:2 6570:1 6895:1 8746:1 11491:1 13236:1 15066:2 15068:1 15075:15 15076:2.706 15077:0.449 15078:0.449 15079:-0.229 15081:1 15091:2 15093:4 15097:2 15110:2 
0 0.2176469658774183 1:1 779:1 1838:1 1898:1 3256:1 4828:2 6090:1 10641:1 11443:1 12861:1 13236:1 13449:1 13985:1 14031:1 14206:1 14341:1 14424:1 14724:1 15075:18 15076:0.396 15077:-0.062 15078:-0.062 15079:-0.068 15081:2 15086:2 15089:1 15091:1 15092:1 15093:5 15097:1 15110:1 
0 0.5882343999815657 1:1 79:1 749:1 848:1 4591:1 5416:1 5937:1 6023:1 6601:1 7523:1 7916:1 8903:1 8956:1 9303:1 11543:1 13236:2 14031:1 14424:1 14493:1 14679:1 15075:18 15076:4.423 15077:0.029 15078:0.029 15079:0.19 15085:1 15091:3 15092:1 15093:2 15107:1 15109:1 
0.0572158998039935 0 494:1 706:1 1641:1 3253:1 3255:1 4828:2 6272:1 6274:1 8434:1 8545:1 9063:1 9064:1 9215:1 9428:1 13236:1 14386:1 15069:1 15075:17 15076:2.929 15077:0.422 15078:0.422 15079:0.613 15081:1 15091:6 15093:4 15099:1 15106:1 15108:1 
0 0.2967258568358649 1:1 1060:1 1155:1 2615:1 2933:1 3256:1 4781:1 4945:1 4988:1 5318:1 6326:1 6601:1 7062:1 13236:1 13256:1 13449:2 13487:1 15070:1 15075:14 15076:0.046 15077:-0.165 15078:-0.165 15079:-0.165 15091:4 15092:2 15093:3 
0 0.1804419373232905 1:2 456:2 1370:1 6191:1 6811:1 6895:1 7523:2 7745:2 7763:1 8428:1 9181:1 14341:1 14345:1 14557:1 15066:1 15070:2 15075:12 15076:0.943 15077:-0.062 15078:-0.062 15079:-0.742 15093:6 15097:1 15110:2 15113:1 
0.06680578099614704 0.5032487634899233 5071:1 7411:1 9005:1 11696:1 13236:1 13449:1 13487:1 14305:1 15067:1 15068:1 15074:2 15075:8 15076:0.865 15077:0.334 15078:0.334 15079:-0.151 15091:2 15093:2 15099:1 15106:1 
0.201426170529977 0.2989386642318909 4828:1 5132:1 5789:1 6191:1 6570:1 6831:1 9303:1 10181:1 11304:1 11534:1 12841:1 13229:1 13236:1 13994:1 15066:1 15075:12 15076:-0.222 15077:-0.062 15078:-0.062 15079:-0.032 15085:1 15086:1 15091:1 15093:3 15097:2 15108:1 15110:2 
0.05769308178966322 0 1964:1 3348:1 4336:1 4512:1 4828:1 5027:1 6544:1 6906:1 6969:1 8717:2 9303:3 11979:1 11993:1 13741:1 15068:1 15075:15 15076:1.908 15077:0.449 15078:0.449 15079:0.573 15086:3 15091:2 15093:3 15099:1 
0.02498306596142817 0 307:1 456:1 680:1 1898:1 1908:1 2273:1 6326:1 7519:1 8926:1 9050:1 9201:1 9536:1 9853:1 12682:1 13036:1 13236:1 13384:1 14947:1 15075:11 15076:0.909 15077:-0.062 15078:-0.062 15079:0.079 15081:1 15091:3 15092:1 15093:9 15108:1 
0 0.407572540493286 1:1 32:1 1308:1 3092:1 3991:1 4376:1 4624:1 5290:1 5498:1 6097:1 6326:1 6570:1 7523:1 7908:1 10277:1 10557:1 12314:1 13019:1 13236:2 13288:1 13449:2 15075:21 15076:0.052 15077:-0.062 15078:-0.062 15079:0.37 15081:1 15082:1 15091:6 15093:2 15099:1 15108:1 
0 0.2750944466153993 456:1 1254:1 2153:1 4834:1 5077:1 5207:2 8885:1 8911:1 9146:1 10773:1 12826:1 13236:3 13449:1 13772:1 14979:1 15070:3 15074:1 15075:10 15076:0.565 15077:-0.315 15078:-0.315 15079:-0.165 15082:1 15091:3 15092:3 15093:4 15110:1 
0 0.3544388913645234 2632:1 4077:1 4828:1 5672:1 6238:1 6745:1 7156:1 8163:1 8164:1 8527:1 9303:1 9313:1 13229:1 13449:1 13650:1 14982:1 14994:1 15075:14 15076:3.589 15077:0.219 15078:0.219 15079:0.831 15086:2 15091:2 15093:5 15107:1 15109:1 
0.2086215822309847 0.5819980531875386 340:1 1241:1 1874:1 2205:1 8125:1 9303:1 12664:1 13005:1 13236:1 13251:1 13279:1 13378:1 13673:2 14380:1 14982:2 15074:2 15075:15 15076:-1.943 15077:0.138 15078:0.138 15079:0.158 15082:1 15086:1 15090:1 15091:2 15093:2 15097:3 15099:1 15106:1 15107:1 15108:1 15109:1 15110:1 
0.2872801513377493 0.3444168446797498 444:1 486:1 900:1 1307:1 2220:1 3275:1 4828:1 5343:1 5375:1 5716:1 6416:1 7219:1 9988:1 10198:1 12826:1 13449:2 14612:2 14679:1 15074:1 15075:19 15076:-0.586 15077:0.611 15078:0.611 15079:-0.51 15086:1 15091:5 15093:6 15096:2 
0 0.2470693176112998 32:1 456:2 1185:1 1874:1 3299:1 4999:1 5343:1 5561:1 5766:1 5919:1 7633:1 7698:1 9303:2 9991:1 11706:1 12026:1 12205:1 13985:1 14424:1 15001:1 15075:17 15076:-0.753 15077:0.825 15078:0.825 15079:-0.029 15081:2 15091:3 15092:1 15093:5 15107:1 
0 0.05564422560512503 1:1 573:1 2635:1 3209:2 5343:1 5388:1 5766:1 6366:1 8451:1 9303:2 11970:1 12457:1 12967:1 13341:1 14368:1 14527:1 15066:1 15074:1 15075:14 15076:2.54 15077:0.603 15078:0.603 15079:0.047 15086:2 15091:2 15092:1 15093:6 15107:1 
0.08980118195765921 0 113:1 456:1 1683:1 1874:1 2230:1 4479:1 4949:1 5593:1 5919:1 6326:1 6570:1 6601:2 7299:1 7472:1 9063:1 9064:1 9213:1 9303:2 14368:2 14880:1 15069:1 15074:1 15075:22 15076:1.312 15077:0.442 15078:0.442 15079:-0.219 15080:1 15081:1 15086:3 15091:4 15093:4 15097:1 15099:1 15111:1 
0.07557369268990599 0.170494507725441 1:1 66:1 208:1 543:1 1914:1 2473:1 3255:1 6200:1 6364:1 6601:1 8885:1 9081:1 9554:1 14221:1 14476:1 15066:2 15074:1 15075:15 15076:2.142 15077:-0.275 15078:-0.275 15079:-0.643 15081:2 15082:1 15086:2 15091:4 15092:2 15093:5 15096:1 15110:1 15111:1 
0.07829240437223481 0 859:1 3138:1 3255:1 3330:1 5679:1 6326:1 6611:1 9063:1 9064:1 11414:1 13236:1 13841:1 14082:1 15066:2 15069:1 15074:1 15075:11 15076:0.9 15077:-0.062 15078:-0.062 15079:0.603 15081:1 15086:1 15091:3 15093:5 15099:1 
0 0.2761520150838292 1:1 686:2 2175:1 3427:1 3482:1 5059:1 6296:1 8926:1 12170:1 14679:1 14793:1 14982:1 15066:1 15075:15 15076:2.448 15077:-0.062 15078:-0.062 15079:0.317 15081:2 15091:6 15093:2 
0.08283215846409549 0.02808972601207109 32:1 2826:1 3064:1 5207:1 5679:1 5931:2 6570:1 8852:1 9303:1 13236:1 13741:1 14173:1 14463:1 14679:1 15075:11 15076:-0.358 15077:-0.113 15078:-0.113 15079:-0.115 15091:3 15092:2 15093:3 
0 0.009846795432012338 512:1 746:1 749:1 1735:1 4635:1 4967:1 4992:1 5343:1 5866:1 5931:1 6326:2 7793:1 8590:1 8717:1 9303:1 12573:1 13236:1 13449:1 13487:1 13780:1 13870:1 14354:1 15066:1 15070:3 15075:18 15076:-1.309 15077:-0.062 15078:-0.062 15079:0.627 15087:1 15091:3 15093:6 15107:1 
0 1 456:1 686:1 749:1 1520:1 2001:1 2153:1 3255:1 4828:1 4864:1 7071:1 7692:1 9213:1 9305:1 9432:1 9722:1 13236:1 13487:1 14424:1 15066:1 15074:1 15075:14 15076:2.63 15077:0.02 15078:0.02 15079:-0.078 15081:2 15086:1 15091:4 15093:8 15096:1 
0.08362356014995169 0.1565931454900464 1096:1 1874:1 3193:1 5343:1 5375:1 5716:1 6652:1 6681:1 8125:1 8320:1 9213:1 9305:1 10616:1 12286:1 12308:1 12577:1 13236:1 15075:15 15076:-0.947 15077:-0.062 15078:-0.062 15079:0.324 15080:1 15091:2 15092:1 15093:2 15099:1 15111:1 
0.5171605029254384 0.2856271164388588 383:1 456:2 1096:2 1976:1 2507:1 3756:1 4412:1 5318:1 6167:1 6191:1 6570:1 6906:1 7515:1 8565:1 8995:1 9093:1 9305:1 11443:1 12354:1 12823:1 13236:2 14610:1 14982:2 14994:1 15066:1 15074:1 15075:25 15076:0.081 15077:0.02 15078:0.02 15079:-0.323 15082:2 15086:1 15090:1 15091:3 15092:1 15093:2 15097:2 15099:1 15106:1 15110:1 
0 0.1305464489546562 340:1 749:1 1993:1 3139:1 5335:1 5625:1 7403:1 7456:1 12238:1 12262:1 13236:1 13487:1 13994:1 15066:1 15070:2 15075:10 15076:0.701 15077:-0.151 15078:-0.151 15079:-0.253 15086:1 15091:5 15093:2 15097:2 15110:1 
0.1148920478965828 0.8077472616046401 1874:1 2007:1 4828:1 6191:2 6326:1 6689:1 7156:1 11333:1 11372:1 13236:1 14305:1 14843:1 15066:2 15070:1 15075:7 15076:-0.617 15077:0.219 15078:0.219 15079:0.017 15082:1 15093:5 15097:2 15099:1 15106:1 15111:1 
0 0.2727146471465398 1:2 1789:1 1874:1 4082:1 5343:1 6272:2 7672:1 8538:1 9303:2 9878:1 10142:1 11816:1 12262:1 13094:1 13236:1 13916:1 14493:1 14521:1 14982:1 14994:1 15066:2 15068:1 15075:19 15076:2.519 15077:0.197 15078:0.197 15079:0.136 15086:1 15091:4 15093:7 15107:1 
0.5391103501839338 0.7601710907045408 340:1 619:1 1326:1 4828:1 6191:1 6906:1 8717:1 8995:1 9648:1 12931:1 13071:1 13356:2 14341:1 15066:1 15075:13 15076:0.876 15077:-0.062 15078:-0.062 15079:-0.838 15081:1 15082:2 15091:2 15092:2 15093:2 15097:1 
0.03109311785116487 0.2965144988669034 456:1 1235:1 3163:1 3255:1 3515:1 3827:1 4304:1 4981:1 5406:1 6326:1 6570:1 8934:1 9213:1 9432:1 11602:1 12206:1 14453:1 14920:1 15068:1 15075:16 15076:0.388 15077:0.449 15078:0.449 15079:-0.115 15081:1 15091:6 15093:6 15107:1 
0.07168345555437969 0.07738713663879007 1350:1 2688:1 4814:1 6326:1 8434:1 9088:1 9204:1 9213:2 9777:1 13236:2 14721:1 15067:1 15074:1 15075:10 15076:-0.152 15077:0.334 15078:0.334 15079:-0.103 15081:2 15082:1 15091:2 15093:7 15099:1 15111:1 
0.148282570223909 0.05705696641467794 69:1 456:1 1138:1 1370:1 3701:1 4678:1 5318:1 5375:1 5679:1 6178:1 8428:1 9462:1 9597:1 10519:1 13449:2 14450:1 15075:20 15076:-0.718 15077:1.196 15078:1.196 15079:-0.265 15086:1 15091:6 15093:1 15096:1 15107:3 15108:1 15109:1 
0.127610687964982 0 456:1 1096:1 1344:1 1874:1 2007:1 2034:1 3296:1 3515:1 4638:1 4890:1 6611:1 8934:1 9303:2 9754:1 10197:1 11491:1 11935:1 11960:1 12930:1 13236:1 14305:1 15066:1 15067:1 15074:3 15075:19 15076:-1.252 15077:-0.062 15078:-0.062 15079:0.2 15081:1 15091:2 15093:9 15099:1 15106:1 
0.05999137125841174 0.1315008827139341 161:1 1917:1 2523:1 2908:1 2989:1 3744:1 4673:1 4976:1 5625:1 8318:1 8956:1 9201:1 9432:1 11228:1 12351:1 12401:1 12967:1 13236:1 13352:1 13608:1 14832:1 15066:12 15074:3 15075:15 15076:1.493 15077:-0.311 15078:-0.311 15079:0.603 15081:3 15086:1 15088:1 15091:5 15093:12 15108:1 
0 0.6642503154146282 1096:1 3201:1 3255:1 4655:1 4702:1 6207:1 6474:1 9303:2 11960:1 13487:1 15075:10 15076:1.993 15077:-0.062 15078:-0.062 15079:0.183 15091:2 15093:3 15108:1 
0.4452705772305115 1 1096:1 6326:1 6601:1 7523:1 7622:1 8317:1 8956:1 12826:1 14610:1 15075:7 15076:0.509 15077:0.2 15078:0.2 15079:-0.022 15091:2 15093:3 
0.02175330692363332 1 1502:1 2174:1 4828:1 7498:1 7519:1 9050:1 9081:1 9303:1 10038:1 11727:1 13015:1 13340:1 13356:1 13449:1 14478:1 14679:1 15075:12 15076:0.09 15077:0.474 15078:0.474 15079:-0.038 15081:2 15086:1 15091:2 15092:1 15093:6 15104:1 15106:1 15108:1 
0.1492618466589815 0.5212195342915582 1:1 444:1 456:1 568:1 925:1 1946:1 3255:2 3973:1 4188:1 5335:1 5879:1 6570:1 6601:1 7112:1 7113:1 8790:1 9213:1 12262:1 13487:1 15075:16 15076:-1.541 15077:-0.062 15078:-0.062 15079:-0.822 15085:1 15086:1 15091:7 15093:5 15097:1 15099:1 15110:1 
0 0.7476615155959042 456:2 512:1 2632:1 4828:1 5563:1 6906:1 7099:1 8717:1 9213:1 9303:1 10946:1 11005:1 11443:1 12065:1 12354:1 13341:1 13449:1 14982:1 15074:1 15075:15 15076:4.113 15077:0.707 15078:0.707 15079:-0.211 15080:1 15086:1 15091:4 15092:1 15093:3 15099:1 15108:1 
0.2011304218076049 0.3024596541930817 1:1 208:1 456:2 741:1 1334:1 4627:1 5085:1 6326:2 7369:1 7908:1 7939:1 8560:1 10761:1 10926:1 11044:1 12973:1 14054:1 14194:1 14670:1 14793:1 15053:1 15066:1 15075:20 15076:0.624 15077:-0.062 15078:-0.062 15079:0.012 15081:2 15086:2 15091:3 15092:3 15093:5 15110:1 
0 0.3168240958760302 32:1 456:1 799:1 1251:1 2933:1 3015:1 3256:1 5040:1 5176:1 5583:1 6191:1 6326:1 6906:1 6969:1 8651:1 8903:1 8956:1 9005:1 9305:1 11302:1 12657:1 13236:2 13256:1 13282:1 15066:2 15075:18 15076:0.579 15077:0.164 15078:0.164 15079:0.019 15091:2 15092:1 15093:8 15097:1 15099:2 15108:1 
0.1435912660436738 0 1:2 456:1 741:1 766:1 1096:1 1685:1 1895:1 2038:1 4828:1 5077:1 5334:1 5441:1 6570:1 9303:2 10151:1 12621:1 13236:2 13449:1 13487:1 14015:1 14194:1 15070:1 15075:22 15076:1.347 15077:0.449 15078:0.449 15079:0.219 15086:1 15091:5 15092:1 15093:3 15108:1 
0.0649682973007169 0.1396391503062946 2234:1 6238:1 6570:1 7523:1 9262:1 11061:1 12262:1 13066:2 13453:1 13741:1 14982:1 15068:1 15075:8 15076:1.327 15077:0.449 15078:0.449 15079:-0.253 15093:6 
0 0.02596061868031881 1:1 2652:1 4333:1 4828:1 5375:1 6129:1 6444:1 6746:1 7692:1 7914:1 8527:1 9303:1 9432:1 13236:1 13766:1 15075:12 15076:3.892 15077:-0.078 15078:-0.078 15079:0.136 15091:2 15093:4 15107:2 15108:1 
0.3385656297613605 0.1813585745131994 1235:1 1874:1 4828:1 5733:1 5766:1 5931:1 6570:2 6602:1 7093:1 7474:1 8125:1 8880:2 9063:1 9064:1 9093:2 9213:1 9215:1 9369:2 10723:1 13229:1 13236:1 13245:1 13449:1 14031:1 14578:1 15069:1 15070:1 15075:26 15076:-0.18 15077:-0.028 15078:-0.028 15079:-0.168 15081:1 15082:1 15092:1 15093:5 15097:1 15099:1 15106:1 15111:1 
0 0.1937194663363575 444:1 584:1 749:1 1096:1 1185:1 4333:1 5737:1 6326:1 8351:1 8619:1 8903:1 11731:1 13236:1 13261:1 13487:1 15070:1 15074:1 15075:11 15076:-1.795 15077:-0.184 15078:-0.184 15079:0.051 15090:1 15091:2 15093:3 15106:1 15107:1 
0.088315618740078 1 1685:1 2364:1 3255:1 6570:1 6601:1 6883:1 8377:1 8378:1 9303:1 13453:1 15070:1 15075:10 15076:0.838 15077:-0.062 15078:-0.062 15079:0.339 15081:3 15091:3 15093:5 15096:1 
0 0.2978063440157076 2699:1 5343:1 6195:1 6326:1 6561:1 7793:1 9303:1 11543:1 12993:1 13236:1 13449:1 14122:1 14557:1 15070:1 15075:8 15076:0.508 15077:0.047 15078:0.047 15079:0.627 15081:1 15093:7 15096:1 15107:1 15111:1 
0 0.8683655000038266 667:1 3072:1 3271:1 5625:1 9377:1 9471:1 11912:1 12633:1 13378:1 13449:2 13453:1 13487:1 13641:1 14679:1 14994:1 15066:2 15070:1 15074:1 15075:15 15076:3.942 15077:0.905 15078:0.905 15079:0.138 15081:1 15086:2 15091:1 15092:1 15093:8 15099:1 15110:1 
0.260219141027755 0 1:1 950:1 2550:1 2615:1 3828:1 4576:1 5243:1 5287:1 5314:1 5343:1 6043:1 6191:2 6326:1 8022:1 8717:1 9164:2 9215:1 9303:1 13449:1 14408:1 14450:1 14982:1 15066:5 15075:20 15076:-0.997 15077:-0.062 15078:-0.062 15079:-0.165 15091:2 15093:6 15097:2 15107:1 15108:1 15109:1 15110:1 15111:1 
0.09819883977790815 0 32:1 1169:1 1235:2 3133:1 3165:1 4069:1 4307:1 5187:1 5716:1 6326:3 6708:1 7962:1 8911:1 10537:1 10546:2 10713:1 13021:1 13236:4 15070:2 15075:23 15076:-2.183 15077:-0.002 15078:-0.002 15079:0.037 15081:1 15086:1 15091:7 15092:1 15093:3 15108:1 15110:1 
0.04901204136155886 0 1:1 216:1 1096:1 1326:1 1976:1 2234:1 4828:1 6906:1 8181:1 8717:1 9303:1 12721:1 13066:1 15067:1 15075:12 15076:1.105 15077:0.707 15078:0.707 15079:-0.024 15081:1 15086:1 15091:1 15093:4 
0 0.1516330531232472 456:2 1551:1 1576:1 3402:1 3411:1 3522:1 4069:1 5207:1 6238:1 6326:1 6996:1 7523:1 8125:1 8211:1 8885:1 8996:1 9824:1 12826:1 12841:1 13236:2 13269:1 14648:1 14979:1 15066:1 15075:17 15076:2.533 15077:-0.027 15078:-0.027 15079:0.573 15081:1 15091:1 15093:10 15108:1 
0.01220913439419413 0 1096:1 2578:1 2733:1 4483:1 5318:1 5807:1 6601:1 7440:1 7877:1 8181:1 8717:1 8736:1 9088:1 11960:1 13236:1 13449:1 14679:1 15075:18 15076:2.629 15077:1.147 15078:1.147 15079:0.365 15081:1 15091:6 15097:1 15099:2 
0 0.3886646524782141 1251:1 3793:1 5111:1 5899:1 7523:1 8125:1 9394:1 10152:1 13218:1 13236:1 15068:1 15070:1 15075:10 15076:1.297 15077:0.449 15078:0.449 15079:0.104 15081:1 15086:1 15091:1 15093:3 15099:1 
0.003481652446460982 0.3184656036117979 1:1 3162:1 3299:1 5000:1 5737:1 6342:1 6592:1 6601:1 9213:2 9878:1 11076:1 13994:1 14423:1 14951:1 14982:1 14994:1 15066:1 15075:15 15076:2.595 15077:0.165 15078:0.165 15079:0.676 15086:1 15091:2 15093:5 15096:1 15097:1 15107:1 15111:1 
0.3045650064796957 0.236724241433757 456:1 944:1 2067:1 3668:1 4398:1 4871:1 5318:1 7299:1 7695:1 9063:1 9064:1 10733:1 11620:1 13261:1 13302:1 13378:2 13449:2 13496:1 14424:2 14493:2 15069:1 15075:21 15076:0.48 15077:-0.34 15078:-0.34 15079:0.59 15081:2 15086:1 15091:2 15093:4 15099:2 15106:1 15107:2 15108:1 
0.07799859443126278 0 456:1 1287:1 1479:1 3244:1 3522:1 5343:1 5710:1 6191:1 6601:1 6650:1 6675:1 7793:1 9304:1 10603:1 10840:1 12555:1 13236:1 13269:1 13487:1 14762:1 15066:1 15074:1 15075:15 15076:1.499 15077:0.132 15078:0.132 15079:0.627 15091:5 15092:1 15093:6 15097:2 15107:1 15110:1 
0 0.4228710655046807 456:1 840:1 2195:1 4949:1 7745:1 9213:1 13236:1 13288:1 14424:1 15075:6 15076:1.351 15077:-0.062 15078:-0.062 15079:0.2 15082:1 15091:1 15093:4 15107:1 
0.4833624178913897 0.2399260080909373 32:2 5152:1 5662:1 5784:1 6238:1 7523:1 7597:1 8434:1 10344:1 13288:1 14994:1 15066:1 15074:1 15075:11 15076:0.065 15077:-0.356 15078:-0.356 15079:0.316 15082:1 15085:2 15086:4 15091:2 15093:1 15096:1 15097:1 15099:1 15110:1 15111:1 
0 0.1330169696980901 1:1 340:1 749:2 1576:1 2220:1 2426:1 4819:1 4828:1 5318:1 5679:1 5745:1 6087:1 8527:1 8956:2 10343:1 13236:1 13449:1 14626:1 15067:1 15070:1 15074:2 15075:13 15076:0.61 15077:0.19 15078:0.19 15079:-0.182 15091:3 15092:1 15093:7 15110:1 
0.1059088137882166 0.0160779755415389 1715:1 1874:1 3348:1 4674:1 5006:1 5077:1 5737:1 6191:2 6570:1 6601:1 8125:1 8560:1 8717:1 9543:1 9990:1 10940:1 11363:1 13218:1 13236:2 14368:1 14790:1 14948:1 15066:2 15075:22 15076:-3.229 15077:0.276 15078:0.276 15079:0.147 15086:1 15091:5 15097:2 15099:2 15107:1 15109:1 15110:1 
0.165595219523147 0.7494178610700644 1350:1 2085:1 4304:1 4717:1 4828:1 5236:1 5287:1 6191:1 6326:1 6761:1 6906:1 13265:1 13341:1 13449:1 15066:2 15075:8 15076:0.036 15077:0.438 15078:0.438 15079:-0.415 15082:1 15092:1 15093:6 
0.6929373304438085 0.9596835656838991 340:1 456:1 1145:1 3731:1 4828:1 5077:1 8812:1 9303:1 12569:1 13236:2 13487:1 14308:1 15066:1 15074:2 15075:11 15076:0.43 15077:0.219 15078:0.219 15079:-0.151 15081:1 15082:1 15091:2 15093:4 15097:1 15108:1 15110:1 
0.07792628503682707 0 456:2 619:1 854:1 1165:1 3270:1 3612:1 4030:1 6191:1 6570:1 6601:1 6848:1 8073:1 9063:1 9305:1 10588:1 10684:1 12872:1 13279:1 13449:1 13823:1 14322:1 14531:1 15066:1 15075:23 15076:0.828 15077:-0.062 15078:-0.062 15079:-0.115 15081:1 15086:1 15091:1 15093:5 15097:2 15099:1 15106:1 15107:1 15111:1 
0.05552935430574148 0 444:1 840:1 4828:1 5406:1 5862:1 6191:2 6326:1 7334:1 7748:1 8651:1 11510:1 11970:1 12262:1 12322:1 13010:1 13236:2 15074:1 15075:17 15076:2.364 15077:-0.079 15078:-0.079 15079:-0.418 15081:1 15085:1 15091:3 15093:2 15107:1 
0 0.1505194731745919 59:1 749:1 1287:1 3437:1 6518:1 8746:2 8896:1 9213:1 9607:1 9613:1 10321:1 10621:1 11543:1 13236:2 13288:1 15074:1 15075:12 15076:2.093 15077:0.031 15078:0.031 15079:-0.182 15086:2 15091:2 15092:1 15093:7 15107:1 15111:1 
0 0.2075871094079731 340:1 1183:1 2683:1 5077:1 6043:1 7873:1 9766:1 10650:1 11696:1 13261:1 13449:1 13487:1 14606:1 14982:1 15068:1 15075:14 15076:2.674 15077:0.449 15078:0.449 15079:0.399 15091:4 15093:4 15099:1 
0.07503765571780224 0.1569208904745981 42:1 332:1 456:1 749:1 1318:1 2817:1 3063:1 3560:1 3934:1 6326:1 6601:1 7295:1 7523:1 9167:1 9275:1 11269:1 12205:1 13236:2 13496:1 14491:1 15066:1 15070:2 15074:1 15075:14 15076:-0.498 15077:-0.062 15078:-0.062 15079:-0.083 15081:1 15085:1 15086:2 15091:1 15093:10 15096:1 15099:1 
0.2567853579586041 0.3303082042012856 907:1 1145:1 1898:1 4779:1 4847:1 6326:1 6601:1 7662:1 8125:2 8516:1 8880:1 9063:1 9064:1 9369:1 12389:1 12931:1 13071:1 13236:1 14368:1 15069:1 15075:18 15076:2.776 15077:0.58 15078:0.58 15079:0.785 15090:1 15091:4 15092:1 15093:1 15097:2 15099:2 15106:2 15107:1 
0.1711344861368287 1 749:1 2155:1 3255:1 7156:1 8189:1 9088:1 11696:1 12262:1 12333:1 12748:1 13229:1 14327:1 14517:1 14982:1 15070:1 15075:13 15076:0.48 15077:-0.062 15078:-0.062 15079:-0.075 15081:1 15090:1 15091:1 15092:1 15093:4 15096:1 15097:2 15099:1 15106:1 15111:1 
0.05612649554427251 0.2182295738006093 414:1 456:1 619:1 749:1 3263:1 4089:1 4542:1 4922:1 4955:1 5165:1 6238:1 8181:1 11696:1 12651:1 13203:1 13449:1 13487:1 14982:1 15066:1 15070:1 15075:17 15076:2.264 15077:0.185 15078:0.185 15079:-0.151 15086:1 15091:2 15092:1 15093:5 15099:1 
0 0.09749798859868146 2817:2 4653:1 4702:1 4828:2 6277:1 8527:1 8968:2 9445:1 9853:1 11369:1 13236:2 13378:1 13998:1 15074:1 15075:15 15076:3.821 15077:0.079 15078:0.079 15079:0.253 15082:1 15086:1 15091:3 15092:3 15093:6 15107:1 
0.08968956053725344 0 3183:1 4333:1 4717:1 4764:1 5314:1 5768:1 6326:1 7908:1 8457:1 9635:1 12713:1 12872:1 13084:1 13236:1 13449:3 13487:1 13828:1 13838:1 15066:1 15070:7 15075:14 15076:-1.094 15077:-0.062 15078:-0.062 15079:-0.165 15081:1 15091:8 15093:4 15111:1 
0 0.2311013217932182 568:1 1898:1 3255:1 6570:1 7113:1 7241:1 8560:1 8789:1 12664:1 13218:1 13449:1 13487:1 14475:1 15075:12 15076:2.68 15077:-0.062 15078:-0.062 15079:-0.151 15082:1 15091:2 15093:3 15097:1 15099:1 15110:1 
0.5766611663397596 1 5318:1 6326:1 6682:1 7013:1 7267:1 11696:1 13449:1 14679:1 15075:5 15076:0.289 15077:-0.049 15078:-0.049 15079:-0.165 15086:1 15091:1 15093:3 15108:1 
0.09153997501383583 0.382850243925721 1:1 456:1 619:1 2616:1 3255:1 3756:1 3802:1 4169:1 4650:1 4749:1 4949:1 5629:1 8995:1 9369:1 9591:1 9951:1 10071:1 11602:1 11934:1 12432:1 13236:1 14679:1 14967:1 14982:1 15066:1 15068:1 15075:18 15076:3.816 15077:0.449 15078:0.449 15079:0.449 15082:1 15086:1 15091:3 15092:4 15093:7 15097:1 15110:2 
0.3888541640587391 0.9239360085153872 2855:1 4702:1 5176:1 6191:1 6570:1 6653:1 8181:1 11872:1 13276:1 13449:2 13487:1 13638:1 14527:1 15066:1 15070:1 15075:15 15076:0.096 15077:-0.062 15078:-0.062 15079:-0.338 15081:1 15085:1 15091:1 15097:1 15108:1 15110:1 
0.60324695332361 0.737388755181518 533:1 749:1 1539:1 3299:1 3939:1 5287:2 6191:1 7156:1 7455:1 8181:1 9303:1 10767:1 11696:1 11877:1 13449:1 14339:1 14341:1 15066:1 15067:1 15070:1 15074:1 15075:17 15076:-2.398 15077:-0.062 15078:-0.062 15079:-0.878 15081:2 15091:2 15093:3 15097:1 15099:1 15107:1 
0 0.2375004217658735 340:1 456:2 5766:2 6570:1 6601:1 8759:2 9213:2 9303:2 9305:2 11567:1 11882:2 13094:2 13229:1 13236:2 14368:1 15075:26 15076:1.363 15077:0.013 15078:0.013 15079:-0.217 15081:2 15085:1 15091:5 15092:2 15093:1 15096:2 
0.2802988735730641 0 340:1 619:1 3677:1 4799:1 4878:1 5766:1 5931:1 6073:1 6570:1 6601:1 6750:1 7547:1 9093:1 9462:1 9880:1 9937:1 11142:1 13766:1 13994:1 15067:2 15068:1 15074:2 15075:20 15076:-0.376 15077:0.334 15078:0.334 15079:0.061 15086:1 15091:1 15092:2 15093:2 15107:1 15111:1 
0.02883105232601457 0.1208973151848376 749:1 940:1 1169:1 1207:1 2504:1 2577:1 4144:2 8125:1 8334:1 8560:2 8797:1 10000:1 12465:1 13236:2 13288:1 13449:1 13994:2 14031:1 14679:1 15075:22 15076:0.983 15077:-0.062 15078:-0.062 15079:0.158 15080:1 15082:1 15086:1 15091:5 15093:2 15099:1 
0 0.1090182896378592 1:1 415:1 4828:2 5287:1 5343:1 6570:1 6586:1 8386:1 9164:1 9213:2 9303:1 10089:1 10277:1 13174:1 13236:1 13449:2 13741:1 14261:1 14610:1 15074:1 15075:18 15076:3.662 15077:0.498 15078:0.498 15079:-0.115 15091:3 15092:2 15093:4 
0.1046440808358241 0.7029551238574494 854:1 3255:1 4687:1 6326:1 9201:1 11000:1 13764:1 14763:1 15075:7 15076:1.134 15077:1.313 15078:1.313 15079:0.183 15081:1 15091:5 15093:2 
0.1302154894000174 0.1113652389405169 1:1 456:1 686:1 1251:1 1874:1 2021:1 3110:1 3346:1 5077:1 5716:1 5931:1 5959:1 5961:1 6326:1 6570:2 6601:1 10817:1 11491:1 13074:1 13236:1 13288:1 15074:1 15075:21 15076:-1.22 15077:-0.083 15078:-0.083 15079:-0.962 15082:1 15086:2 15091:3 15093:3 15099:1 15106:1 
0 0.3013684867131703 1:1 2652:1 2837:1 3856:1 4483:1 6326:1 8527:1 8862:1 9303:1 11696:1 13236:1 13449:1 14982:1 15075:14 15076:3.099 15077:0.197 15078:0.197 15079:0.269 15081:1 15086:1 15090:1 15091:3 15093:3 15097:1 15106:1 15108:1 
0 0.3219672012040977 749:1 3296:1 6326:1 8632:1 9138:1 11696:1 13449:1 14305:1 14982:1 15066:2 15075:10 15076:1.524 15077:0.782 15078:0.782 15079:-0.744 15081:1 15086:1 15091:1 15093:3 15099:1 15106:1 
0 0.3421214695839734 340:1 1235:1 3299:1 4486:1 6570:1 7022:1 7740:1 11970:1 13229:1 13236:2 14610:1 15075:13 15076:3.472 15077:0.603 15078:0.603 15079:0.603 15081:1 15086:1 15092:1 15093:3 
0.1976446607704769 0.1712820467419076 1:1 900:1 1326:1 1874:1 2989:1 4250:1 4717:1 4967:1 5176:1 5593:1 5997:1 8358:1 13288:1 13324:1 14462:1 14475:1 14527:1 14766:1 14982:2 15066:1 15075:22 15076:2.055 15077:0.053 15078:0.053 15079:0.866 15081:2 15082:1 15085:1 15091:6 15092:1 15093:1 15097:1 15108:1 15110:2 
0 0.5874675401777606 840:1 3641:1 3677:1 4702:1 7334:1 7584:1 7587:1 10829:1 12664:1 13279:1 13288:1 13378:2 13449:1 15075:21 15076:3.72 15077:-0.062 15078:-0.062 15079:0.138 15086:2 15091:4 15093:4 15097:1 15099:1 15106:1 15108:1 15111:2 
0.4822523583285327 0.286644802056472 32:1 4378:1 5866:1 6136:1 6191:1 6595:1 8527:1 8853:1 8956:1 12199:1 13288:1 13449:1 13717:1 13901:1 14305:1 15066:1 15067:1 15074:1 15075:13 15076:0.317 15077:-0.93 15078:-0.93 15079:-0.744 15091:5 15092:1 15093:3 15097:1 15099:1 15106:1 
0.219264792917625 0.1945188101682092 1:1 852:1 2462:1 3505:1 4828:1 4887:1 4949:1 4967:1 6191:1 6254:1 8259:1 8291:1 8956:1 9093:1 10180:1 13229:1 13311:1 13802:1 14531:1 14639:1 14679:1 15066:2 15070:2 15074:3 15075:21 15076:1.865 15077:1.097 15078:1.097 15079:0.498 15081:2 15091:4 15092:1 15093:3 15097:2 15099:1 15108:1 15110:2 15111:1 
0.1745690643616276 0.04144924818007216 1:1 1287:1 1588:1 5318:1 5737:1 6326:1 6570:1 6688:1 6760:1 8683:1 8885:1 8995:1 9303:1 9462:1 9613:1 9662:1 11317:1 13236:1 14517:1 14646:1 15067:1 15075:21 15076:1.186 15077:-0.062 15078:-0.062 15079:0.119 15081:3 15082:1 15086:1 15090:1 15091:3 15093:4 15096:1 15097:1 15106:1 15113:1 
0.1437219811519098 0.1722003184172018 1:1 3880:2 4828:1 6326:2 6570:1 6601:1 6812:1 7366:1 7707:1 8317:1 10178:1 13236:2 13550:1 14280:1 14904:1 15066:2 15070:2 15075:15 15076:-0.029 15077:-0.062 15078:-0.062 15079:-0.115 15081:3 15082:1 15091:1 15092:1 15093:7 15111:1 
0 0.006163265881018392 1:2 456:1 2092:1 2856:1 3021:1 7987:1 8396:1 9303:1 9305:1 11674:2 13487:1 15066:1 15067:1 15074:1 15075:15 15076:0.448 15077:-0.062 15078:-0.062 15079:0.334 15081:2 15083:1 15086:2 15091:5 15092:1 15093:1 15097:1 15111:2 
0.05399599230544982 0.9802245624725324 4828:1 5766:1 5972:1 6043:1 7943:1 8125:1 9213:1 9432:1 13236:1 14081:1 14626:1 14925:1 15075:12 15076:0.462 15077:-0.255 15078:-0.255 15079:-0.142 15091:3 15093:1 15107:1 15110:1 
0 0.06841508576784633 217:1 321:1 1039:1 2591:1 6326:1 7013:1 7203:1 8636:1 8956:1 9213:1 9790:1 9959:1 10263:1 11225:1 12553:1 13236:1 13487:1 14610:1 15066:3 15070:1 15075:12 15076:1.055 15077:-0.062 15078:-0.062 15079:0.449 15091:4 15093:8 
0 0.1417732761709114 1:1 1251:1 1985:1 4992:1 5375:1 7698:1 7725:1 8995:1 9213:1 9303:1 11595:1 12877:1 13218:1 13236:1 13780:1 13868:2 13917:1 15066:3 15075:16 15076:-1.617 15077:-0.062 15078:-0.062 15079:0.047 15081:2 15082:1 15091:4 15093:5 15096:1 15107:1 15109:1 15111:1 
0 0.09642571113347166 32:1 456:1 1293:1 2530:1 2870:1 3600:1 3968:1 4277:1 6326:2 8125:1 8296:1 10071:1 10432:1 10702:1 15075:13 15076:1.616 15077:0.422 15078:0.422 15079:0.2 15081:1 15086:1 15088:1 15091:2 15092:1 15093:5 15096:1 15106:1 15109:1 
0.2865802397165612 0.3927392445700932 1:1 526:1 1096:1 2824:1 3522:1 4967:1 5231:1 5441:1 5619:1 5847:1 6238:1 6326:1 7523:1 7592:1 8995:1 9617:1 9988:1 11500:1 11674:1 13236:1 13269:1 13449:1 13496:1 14679:1 15068:1 15075:23 15076:0.92 15077:0.449 15078:0.449 15079:0.049 15080:1 15081:1 15082:1 15085:1 15090:1 15091:3 15093:4 15097:1 15099:1 15106:2 15111:1 
0 1 30:1 340:1 4169:1 4748:1 4967:1 6019:1 7171:1 9215:1 13236:1 13256:1 13261:1 13449:2 13880:1 15066:3 15070:1 15074:2 15075:13 15076:2.559 15077:1.273 15078:1.273 15079:0.603 15081:1 15082:1 15086:1 15091:2 15093:6 
0 0.3828832328417094 1251:1 1874:1 5189:2 5375:1 6326:1 8363:2 9462:2 11562:1 13236:1 13531:1 14089:1 14925:1 14927:1 15075:23 15076:-0.586 15077:-0.062 15078:-0.062 15079:-0.172 15081:6 15090:1 15091:4 15093:3 15096:2 15097:1 15108:2 
0 0.08904552827279694 340:1 619:1 3668:1 4486:1 6326:1 6473:1 6816:1 8704:1 11129:1 11534:1 11811:1 12079:1 12262:1 12983:1 13253:1 13449:1 13916:1 14475:1 14982:1 15070:1 15075:14 15076:5.562 15077:-0.234 15078:-0.234 15079:0.512 15081:1 15082:1 15091:1 15092:2 15093:6 15096:1 15106:1 15108:1 
0.1378414303844094 0.5807697063661582 1:1 107:1 216:1 3255:1 3880:1 4603:1 4828:1 6132:1 7597:1 8696:1 9213:1 10817:1 11060:1 11615:1 12826:1 13236:1 13288:1 13449:1 14927:1 15066:3 15074:1 15075:15 15076:1.558 15077:0.396 15078:0.396 15079:0.003 15081:2 15082:1 15086:2 15091:2 15092:2 15093:6 
0.2701312394045199 0 1576:1 2652:1 4333:1 5077:1 5593:1 6326:1 10343:1 11917:1 13218:1 13236:1 13288:1 13487:1 15067:1 15074:1 15075:13 15076:1.223 15077:0.866 15078:0.866 15079:-0.232 15081:1 15091:5 15093:1 15097:1 15108:1 15109:1 15110:1 
0.03151619005505201 0 1:1 2576:1 3099:1 5866:1 6750:1 7219:1 7752:1 11534:1 14386:1 14679:2 15070:1 15075:9 15076:3.858 15077:1.076 15078:1.076 15079:-0.022 15091:2 15093:4 15099:1 15108:1 
0.2659353266570247 0.666256576367537 1:1 529:1 2041:1 3294:1 4828:2 5077:1 5919:1 5931:2 6326:3 6750:1 7547:1 11225:1 13236:1 14368:1 15075:17 15076:0.701 15077:-0.062 15078:-0.062 15079:-0.219 15082:1 15086:2 15091:2 15093:3 15107:1 15111:1 
0 0.09186123928526148 1096:1 1257:1 2710:1 3255:1 3915:1 4663:1 4702:1 6097:1 6191:1 6570:1 7745:1 8717:2 9081:1 9093:1 9244:1 9303:2 10921:1 11071:1 12843:1 13236:1 14610:1 15066:2 15067:1 15074:1 15075:17 15076:2.887 15077:-0.366 15078:-0.366 15079:0.079 15081:1 15091:2 15093:8 15097:1 15099:1 15109:1 15110:1 
0.1012769262385117 0.5226789166452103 340:1 456:1 749:1 1096:1 3672:1 4744:1 9462:1 11443:1 12354:1 13236:1 13487:1 15068:1 15070:1 15075:10 15076:-0.778 15077:0.449 15078:0.449 15079:0.02 15091:1 15093:4 15107:1 15111:1 
0 0.1719713468429922 456:1 749:1 1145:1 3250:1 3989:1 4869:1 6023:1 6326:1 6521:1 6689:1 6906:1 12396:1 13236:1 13288:1 13314:1 13449:1 14774:1 15075:15 15076:2.457 15077:-0.062 15078:-0.062 15079:0.032 15091:2 15093:9 15097:1 15107:1 15109:1 15110:1 
0 0.9913721777415563 3793:1 4210:2 4828:1 5899:1 6601:1 6906:1 8903:1 13487:1 14382:1 14383:1 15070:1 15074:1 15075:12 15076:0.311 15077:-0.036 15078:-0.036 15079:0.032 15081:2 15090:1 15091:4 15093:2 15097:1 15106:1 15109:1 
0 0.3496504206832859 456:1 1755:1 5625:1 5679:1 6601:1 8044:1 11893:1 12418:1 14679:1 15075:5 15076:0.724 15077:0.519 15078:0.519 15079:-0.11 15086:1 15091:5 15093:4 15111:1 
0.02521409071215413 0 1:1 1235:1 1576:1 1588:1 4828:2 5937:1 6191:1 6326:1 7369:1 7405:1 8717:1 9432:1 10343:1 11446:1 11966:1 12194:1 12297:1 13229:1 13236:1 13246:1 15066:3 15070:1 15075:19 15076:2.033 15077:0.449 15078:0.449 15079:0.016 15085:1 15086:3 15091:5 15093:4 15097:1 15110:1 
0.09696667200939239 0 1971:1 3092:1 3523:1 5248:1 5332:1 5766:1 6191:1 6272:1 6326:2 7156:1 7662:1 8434:1 9305:1 9443:1 10546:1 11566:1 12679:1 13233:1 13236:1 13737:1 14517:1 15066:1 15068:1 15075:21 15076:-1.863 15077:0.197 15078:0.197 15079:0.017 15081:1 15086:1 15091:6 15093:4 15097:3 15107:1 15108:1 15109:1 15110:1 15111:2 
0 0.3124035102204338 1:1 440:2 1096:1 3684:1 5563:1 6191:1 6326:2 7597:1 7745:1 8351:1 8956:1 9988:1 11543:1 11696:1 11970:1 12333:1 13449:1 14793:1 14982:1 15066:1 15075:18 15076:3.778 15077:0.19 15078:0.19 15079:0.136 15086:1 15091:2 15092:1 15093:3 15097:1 15099:1 15106:1 15108:1 15110:2 
0.1554857085011453 1 749:1 1350:1 1976:1 2285:1 2660:1 3139:1 4702:1 4924:1 4949:1 5176:1 6326:1 7560:1 9303:1 9432:1 9739:1 12240:1 13236:2 14982:1 15066:3 15075:15 15076:2.904 15077:0.422 15078:0.422 15079:0.422 15081:1 15091:1 15093:7 
0 0.2886536585807004 214:1 456:1 3255:1 3256:1 3816:1 4809:1 4828:1 4967:1 7098:1 10916:1 11414:1 11543:1 12100:1 12270:1 12609:1 14763:1 15066:1 15075:21 15076:3.632 15077:-0.062 15078:-0.062 15079:0.58 15081:2 15086:2 15091:6 15092:1 15093:4 15111:1 
0 0.3422134425932195 1177:1 2007:1 2652:1 4566:1 4967:1 6326:1 11696:1 13449:1 14305:1 14982:1 15068:1 15075:11 15076:2.093 15077:0.449 15078:0.449 15079:0.629 15091:1 15093:2 15099:1 15106:1 15108:1 
0.07482921906359863 0.3344405149361729 963:1 1465:1 2578:1 3862:1 7440:1 8527:1 8585:1 9213:1 9257:1 9303:1 13236:1 13487:1 14478:1 15070:1 15075:12 15076:2.05 15077:-0.062 15078:-0.062 15079:0.339 15080:1 15091:2 15093:7 
0 0.05135914248050953 749:1 1096:1 1355:1 1546:1 4534:1 5672:1 5710:1 7908:1 7911:1 8903:1 10015:1 10840:1 13288:1 13449:1 14130:1 15067:2 15070:1 15074:2 15075:14 15076:1.518 15077:0.334 15078:0.334 15079:-0.03 15081:2 15086:1 15091:4 15092:1 15093:2 15106:1 
0.08129621552398691 1 1737:1 2001:1 2733:1 4828:1 4864:1 4953:1 5619:1 6570:1 6830:1 8527:1 8717:1 9303:1 10307:1 11347:1 11727:1 13236:1 13356:1 15066:1 15068:1 15075:15 15076:0.15 15077:0.449 15078:0.449 15079:0.137 15081:1 15082:2 15091:4 15092:1 15093:7 15108:1 15111:1 
0 0.1009716753238777 2:1 456:1 749:1 2083:1 2147:2 2148:1 6078:1 6326:1 7597:1 9088:1 9303:1 13236:1 14391:1 15070:1 15075:6 15076:-0.081 15077:0.038 15078:0.038 15079:-0.083 15081:1 15093:10 
0.0583707737829427 0 1:1 208:1 619:1 1302:1 1683:1 2152:1 3201:1 5287:1 6191:1 6207:1 6238:1 8125:1 9303:2 9369:1 9428:1 9847:1 11043:1 11378:1 13236:2 13279:1 13709:1 14650:1 15066:1 15067:1 15074:1 15075:20 15076:1.451 15077:0.451 15078:0.451 15079:0.059 15086:1 15091:4 15092:1 15093:4 15097:2 15110:2 15111:1 
0.04946029796235378 0 619:1 2285:1 3524:1 4828:1 4968:1 5020:1 6601:1 9303:1 9369:1 9432:1 9536:1 13236:1 13378:1 14424:1 14610:1 14912:1 15066:1 15067:1 15074:1 15075:14 15076:1.907 15077:0.029 15078:0.029 15079:0.334 15081:1 15091:2 15093:6 15096:1 15097:1 15110:1 
0.09574907741798939 0.3125886990502457 507:1 1161:1 2092:2 2617:2 2817:2 5716:1 6570:1 7222:1 7685:1 9213:1 9305:1 11388:1 13236:3 15066:1 15074:1 15075:11 15076:0.217 15077:-0.189 15078:-0.189 15079:0.103 15082:2 15086:2 15091:1 15093:8 15108:1 
0.09272132100644875 0.6898826260395884 112:1 456:2 3269:1 3668:1 5176:1 6601:1 6742:1 6867:1 7457:1 8351:1 8527:1 9093:1 9303:1 10203:1 12553:1 13449:1 14339:1 14982:1 15066:1 15075:14 15076:0.201 15077:-0.168 15078:-0.168 15079:-0.061 15086:1 15091:3 15092:1 15093:4 15097:1 15106:1 15107:1 15108:1 
0.04445766502667551 0.382819034679428 181:1 456:1 666:1 1145:1 2026:1 4747:1 4828:1 5931:1 7299:1 7908:1 8717:1 9093:1 9303:1 9314:1 11347:1 11534:1 12062:1 12553:1 13378:1 14610:1 14797:1 14927:1 15066:2 15075:22 15076:-0.861 15077:-0.062 15078:-0.062 15079:-0.366 15081:2 15091:2 15092:1 15093:7 15096:1 15097:2 15111:2 
0.4326834165142129 1 2217:1 2325:1 3668:1 4461:1 4828:1 5077:1 5287:2 6326:1 6682:1 7569:1 8909:1 10767:1 13236:2 13449:2 14341:1 14578:1 14982:1 15066:3 15075:14 15076:-1.238 15077:-0.062 15078:-0.062 15079:-0.062 15091:2 15093:8 15115:1 
0.03073856836905945 0.4734467386072225 1096:1 1326:1 1929:1 2920:1 5335:1 6500:1 6570:1 6601:1 7364:1 10557:1 12322:1 13236:1 14031:1 15075:16 15076:2.707 15077:-0.062 15078:-0.062 15079:0.603 15081:1 15085:1 15091:4 15093:2 15108:1 
0.03914993444903282 0.3129238933863372 188:1 4031:1 5352:1 6500:1 7359:1 8773:1 9117:1 13282:1 13341:1 14352:1 14610:1 14788:1 14982:1 14994:1 15066:2 15075:11 15076:3.973 15077:-0.592 15078:-0.592 15079:0.422 15081:1 15086:1 15091:3 15093:5 15096:1 15108:1 
0.262871357820245 0.3584257420113056 32:1 456:1 2591:1 3270:1 7156:1 9599:1 10326:1 12316:1 12401:1 12826:1 12872:1 13502:1 14951:1 14982:1 15075:14 15076:-0.108 15077:-0.062 15078:-0.062 15079:-0.128 15086:1 15091:3 15093:4 15097:1 15099:2 15106:1 15110:1 15111:1 
1 0.1140529460412894 1824:1 4333:1 6570:1 7100:1 8956:1 9063:1 9064:1 9215:1 11429:1 11674:1 13407:1 14276:1 14450:1 14759:1 15069:1 15075:10 15076:1.544 15077:-0.062 15078:-0.062 15079:-0.194 15091:1 15092:2 15093:4 15099:1 15106:1 15110:1 15111:1 
0 0.2057852037795746 1:1 900:1 2591:1 2703:1 4828:1 4955:1 5189:1 6015:1 6238:1 6570:1 6601:1 7939:1 8717:2 11696:1 13487:1 13994:1 14305:1 14345:1 14860:1 15068:1 15075:21 15076:1.594 15077:0.449 15078:0.449 15079:-0.366 15081:1 15091:2 15092:1 15093:3 15099:2 15106:1 15108:1 15110:1 
0 0.2330167618548686 1251:1 3255:1 6097:1 7332:1 9303:1 12921:1 13229:1 13288:1 13341:1 14368:1 14729:1 14994:1 15074:1 15075:14 15076:3.947 15077:-0.156 15078:-0.156 15079:0.2 15086:2 15091:4 15093:2 
